tree
version=v4
num_class=1
num_tree_per_iteration=1
label_index=0
max_feature_idx=15
objective=binary sigmoid:1
feature_names=Column_0 Column_1 Column_2 Column_3 Column_4 Column_5 Column_6 Column_7 Column_8 Column_9 Column_10 Column_11 Column_12 Column_13 Column_14 Column_15
feature_infos=[0:1] [0:1] [0:1] [0:1] [0:1] [0:0.93023562431335449] [1:8] [2:49] [1:29] [0:1] [0:1] [0:1] [0:1] [0:1] [0:1] [0:1]
tree_sizes=13702 13659 13631 13682 13704 13674 13723 13703 13727 13760 13709 13704 13729 13734 13763 13902 13818 13773 13784 13849 13775 13791 13806 13834 13795 13800 13798 13802 13815 13839 13852 13930 13818 13841 13889 13814 13870 13794 13894 13838 13856 13840 13794 13828 13846 13786 13864 13883 13855 13831 13832 13875 13809 13819 13850 13860 13903 13891 13909 13824 13807 13854 13872 13896 13900 13864 13913 13865 13905 13869 13917 13870 13892 13845 13857 13877 13843 13880 13895 13860 13919 13826 13877 13880 13872 13863 13865 13891 13870 13895 13892 13904 13872 13890 13905 13886 13835 13903 13831 13840 13839 13858 13840 13943 13876 13844 13800 13867 13853 13901 13841 13814 13787 13895 13826 13830 13814 13850 13952 13849 13885 13832 13868 13870 13808 13817 14020 13854 13830 13811 13825 13874 13779 13933 13823 13771 13827 13768 13790 13847

Tree=0
num_leaves=127
num_cat=0
split_feature=5 0 5 5 3 3 3 2 0 15 2 14 5 2 5 0 0 1 3 9 15 5 14 0 3 3 3 2 14 2 3 2 5 1 0 2 14 10 1 10 14 11 0 0 5 5 5 2 2 5 0 3 12 14 0 4 2 5 3 13 9 1 2 5 4 10 11 0 3 11 10 3 10 1 11 0 5 3 5 5 2 4 10 10 5 0 12 5 15 12 1 11 1 4 5 5 3 0 10 5 3 2 4 1 5 5 10 12 4 2 12 5 0 1 5 5 10 12 3 5 1 5 5 4 1 11
split_gain=430284 7742.29 5980.78 3293.33 1347.31 1339.18 1197.28 1240.32 1086.93 844.003 693.31 505.53 464.711 418.323 389.512 663.382 315.786 301.004 265.566 219.3 187.156 174.053 163.888 149.498 139.383 137.09 118.745 135.667 112.553 111.702 157.511 174.225 106.276 91.6211 89.1578 89.0039 88.7902 81.5603 75.5459 68.5801 66.7366 61.424 61.3587 58.9601 63.6581 55.877 55.2624 54.1945 53.9626 53.737 59.5159 52.1996 61.1743 51.3445 49.6237 46.8229 45.3783 44.0989 42.3704 42.2188 40.8911 40.3556 40.2657 38.3028 36.6375 36.4015 36.163 36.1489 36.1382 69.7934 35.7498 33.8049 33.6587 36.2756 56.7816 40.3843 31.5269 30.6887 30.5472 29.744 28.8722 28.0686 27.9289 26.6058 26.5857 26.4665 27.6592 36.883 26.2518 77.4513 25.774 24.1603 23.3666 22.9434 22.9109 22.5977 21.9868 29.8723 21.4839 21.3395 21.3131 25.7482 23.6212 26.0324 20.1787 19.6637 18.9393 18.2972 17.9264 19.8115 17.5545 16.9353 16.2361 17.5941 15.9212 15.2844 22.2032 14.7446 16.0713 14.7242 13.5069 13.4561 13.391 13.2989 13.0856 12.9657
threshold=0.18444541841745379 0.61250001192092907 0.11240791901946069 0.28366304934024816 0.46428571641445165 0.70833334326744091 0.46428571641445165 0.15476191043853763 0.86607143282890331 1.0000000180025095e-35 0.46428571641445165 1.0000000180025095e-35 0.066281795501708998 0.13392857462167743 0.29329700767993933 0.77500000596046459 0.46428571641445165 0.46428571641445165 0.30952382087707525 1.0000000180025095e-35 1.0000000180025095e-35 0.35404258966445928 1.0000000180025095e-35 0.86607143282890331 0.91666665673255932 0.46428571641445165 0.30952382087707525 0.30952382087707525 1.0000000180025095e-35 0.15476191043853763 0.46428571641445165 0.46428571641445165 0.13340276479721072 0.46428571641445165 0.6904762089252473 0.30952382087707525 1.0000000180025095e-35 1.0000000180025095e-35 0.46428571641445165 1.0000000180025095e-35 1.0000000180025095e-35 1.0000000180025095e-35 0.15476191043853763 0.77500000596046459 0.37546242773532873 0.21149917691946032 0.032888753339648254 0.63333335518836986 0.91666665673255932 0.014813373796641828 0.86607143282890331 0.22500000149011615 1.0000000180025095e-35 1.0000000180025095e-35 0.38750000298023229 0.22500000149011615 0.30952382087707525 0.24632639437913897 0.46428571641445165 1.0000000180025095e-35 1.0000000180025095e-35 0.15476191043853763 0.91666665673255932 0.2049907669425011 0.15476191043853763 1.0000000180025095e-35 1.0000000180025095e-35 0.30952382087707525 0.30952382087707525 1.0000000180025095e-35 1.0000000180025095e-35 0.77500000596046459 1.0000000180025095e-35 0.46428571641445165 1.0000000180025095e-35 0.13392857462167743 0.2350682616233826 0.30952382087707525 0.15549890697002414 0.15549890697002414 0.46428571641445165 0.46428571641445165 1.0000000180025095e-35 1.0000000180025095e-35 0.2049907669425011 0.30952382087707525 1.0000000180025095e-35 0.095805045217275633 1.0000000180025095e-35 1.0000000180025095e-35 0.30952382087707525 1.0000000180025095e-35 0.86607143282890331 0.41428571939468389 0.090598165988922133 0.24077622592449191 0.22500000149011615 0.46428571641445165 1.0000000180025095e-35 0.31521129608154302 0.30952382087707525 0.30952382087707525 0.6904762089252473 0.46428571641445165 0.21714902669191363 0.085887648165225997 1.0000000180025095e-35 1.0000000180025095e-35 0.46428571641445165 0.30952382087707525 1.0000000180025095e-35 0.25781799852848059 0.18333333730697635 0.30952382087707525 0.22283392399549487 0.24632639437913897 1.0000000180025095e-35 1.0000000180025095e-35 0.30952382087707525 0.16316841542720797 0.30952382087707525 0.38917404413223272 0.31909638643264776 0.22500000149011615 0.30952382087707525 1.0000000180025095e-35
decision_type=2 2 2 2 2 2 2 2 2 2 2 2 2 2 2 2 2 2 2 2 2 2 2 2 2 2 2 2 2 2 2 2 2 2 2 2 2 2 2 2 2 2 2 2 2 2 2 2 2 2 2 2 2 2 2 2 2 2 2 2 2 2 2 2 2 2 2 2 2 2 2 2 2 2 2 2 2 2 2 2 2 2 2 2 2 2 2 2 2 2 2 2 2 2 2 2 2 2 2 2 2 2 2 2 2 2 2 2 2 2 2 2 2 2 2 2 2 2 2 2 2 2 2 2 2 2
left_child=2 3 5 6 8 12 7 16 13 11 18 21 34 19 15 26 28 35 40 32 36 29 33 25 60 72 27 104 57 -5 31 51 70 45 46 -15 43 55 42 41 56 95 53 44 100 -12 81 -28 -10 50 -7 52 83 -34 -21 -35 96 64 -48 78 79 106 -17 -18 -2 119 76 -66 80 124 -4 84 73 75 107 105 -57 -44 -19 112 110 -1 123 -31 120 -77 108 -88 89 115 -53 98 -64 -23 -27 -29 -9 -98 111 -33 101 -16 122 -104 -3 -14 -47 -75 -87 -110 -37 -20 -6 -114 -49 -58 125 118 -69 -40 -8 -95 -103 -82 -70 -117
right_child=1 14 4 9 24 49 71 10 48 -11 22 -13 23 17 20 62 63 59 91 54 -22 93 -24 -25 -26 94 47 39 -30 30 -32 99 38 37 -36 68 -38 -39 65 -41 -42 -43 77 -45 -46 61 58 114 -50 -51 -52 90 -54 -55 -56 66 88 -59 -60 -61 -62 -63 92 -65 67 -67 -68 117 69 -71 -72 -73 -74 74 -76 85 -78 -79 -80 -81 82 -83 -84 -85 -86 86 87 -89 -90 -91 -92 -93 -94 121 -96 -97 97 -99 -100 -101 -102 102 103 -105 -106 -107 -108 -109 109 -111 -112 -113 113 -115 -116 116 -118 -119 -120 -121 -122 -123 -124 -125 -126 -127
leaf_value=-0.76725869807296254 -0.63543531486320504 -0.62692377482441786 -0.71085628532291023 -0.55872709677065613 -0.59032459761652034 -0.6094008230029373 -0.63788402142998069 -0.75752014616817442 -0.55029876660908839 -0.76547919798696862 -0.70140989260903819 -0.75696705776282824 -0.74719374496088486 -0.76482033391293791 -0.55366987345338892 -0.54731199293776944 -0.61064717871592666 -0.7053423027837471 -0.68768360427888453 -0.6695516744145672 -0.68873541575545238 -0.57333585712723667 -0.76814718223632605 -0.58746536001595451 -0.55139901113245826 -0.72127218118858816 -0.57169389064802112 -0.63984139424450137 -0.76814718223632605 -0.69765667433162648 -0.55671798170631948 -0.59914172886747918 -0.67644468663545476 -0.56947696502974332 -0.65422312905701363 -0.74832603924123342 -0.67735770652281269 -0.56009923238061265 -0.66223611696230478 -0.69392843057740772 -0.76814718223632605 -0.67629324759896103 -0.73514098315147258 -0.54410750766492832 -0.5473023835868972 -0.65454961872161288 -0.7613837757786649 -0.67814718022466924 -0.6130060497363935 -0.55814717754246024 -0.71671860965823642 -0.66141641061993817 -0.58564717815713319 -0.76814718223632605 -0.57543884459562578 -0.66579423877208899 -0.72578016001275358 -0.61078521552882803 -0.71636893840116789 -0.61345967877879093 -0.54314717720718408 -0.72628671618439267 -0.57459442768465663 -0.57438460245267864 -0.73720968154481903 -0.71741188698465674 -0.58299092809776132 -0.68054472126186505 -0.73927550017506449 -0.60121169463405943 -0.75459296506589579 -0.54461297528554986 -0.76146887567064225 -0.70572555074705001 -0.76349601934166678 -0.76680523389619193 -0.63656678281950407 -0.67674093019323711 -0.66360708556005021 -0.60851030715978405 -0.68243289460617673 -0.71438611908777006 -0.67329423893972695 -0.63788402142998069 -0.576382653846223 -0.75807725194131548 -0.74588782345002058 -0.68449333421267067 -0.76814718223632605 -0.61556097192920678 -0.59024020151560919 -0.61310516196414422 -0.54743289158869157 -0.56346293966545213 -0.67949046383678358 -0.59761403721423867 -0.74786029653697716 -0.66053848417891037 -0.6113289969129847 -0.57914035466067082 -0.55377489652490619 -0.59171860686426869 -0.57249500395011566 -0.65105534288442568 -0.57232423521595066 -0.73040420083114954 -0.59507025529083224 -0.74369065995054973 -0.67899623684742072 -0.74541780267360458 -0.71223809007756955 -0.62837445183943486 -0.66994802749903104 -0.63290459161234047 -0.61353179416501824 -0.72573880432507409 -0.64064717938647897 -0.60682642391354502 -0.62496536085414478 -0.63273051254286106 -0.59457574978527372 -0.55310031707351548 -0.5663808733786716 -0.73202507854594934 -0.70330001921482665 -0.66770075141974483
leaf_weight=65336.000486791134 196.66666813194752 20.888889044523239 300.22222445905209 385.11111398041248 13.77777788043022 76.222222790122032 25.333333522081375 136.44444546103477 90.888889566063881 56.22222264111042 104.88888967037201 35.777778044342995 400.88889187574387 285.55555768311024 161.55555675923824 1500.6666778475046 93.333334028720856 82.000000610947609 67.111111611127853 19.777777925133705 22.666666835546494 212.00000157952309 31.111111342906952 14.666666775941847 90.888889566063881 58.666667103767395 192.6666681021452 53.777778178453445 17.33333346247673 70.222222745418549 254.22222411632538 244.66666848957539 258.44444637000561 20.888889044523239 17.555555686354637 416.22222532331944 12.666666761040686 32.444444686174393 102.44444520771503 64.000000476837158 127.3333342820406 59.333333775401115 107.55555635690689 25824.444636851549 2827.777798846364 182.22222357988358 3319.3333580642939 12.222222313284872 55.111111521720886 40.000000298023224 15.555555671453474 17.33333346247673 20.000000149011612 16.222222343087196 48.000000357627869 170.0000012665987 208.88889044523239 108.66666747629642 53.111111506819725 24.888889074325562 15.333333447575567 19.111111253499985 246.44444628059864 331.33333580195904 17.777777910232544 22.666666835546494 21.333333492279053 54.222222626209259 50.222222596406937 13.77777788043022 55.333333745598793 68.222222730517387 509.11111490428448 141.77777883410454 86.000000640749931 335.33333583176136 201.77777928113937 28.44444465637207 94.222222924232483 119.33333422243595 14.000000104308127 25.111111298203468 22.666666835546494 25.333333522081375 359.5555582344532 635.55556029081345 83.111111730337143 34.666666924953461 22.666666835546494 19.333333477377892 47.777778133749962 26.444444641470909 116.66666753590107 425.77778095006943 74.444444999098778 77.111111685633659 27.11111131310463 15.333333447575567 14.666666775941847 293.11111329495907 357.55555821955204 70.000000521540642 20.444444596767426 21.777777940034866 89.111111775040627 308.66666896641254 14.44444455206394 40.888889193534851 11.777777865529059 239.77777956426144 36.666666939854622 14.666666775941847 52.444444835186005 82.444445058703423 43.333333656191826 42.444444760680199 13.333333432674406 11.777777865529059 17.111111238598824 72.000000536441803 62.222222685813904 1185.5555643886328 204.44444596767426 393.11111404001713 50.888889268040657 12.444444537162779
leaf_count=294012 885 94 1351 1733 62 343 114 614 409 253 472 161 1804 1285 727 6753 420 369 302 89 102 954 140 66 409 264 867 242 78 316 1144 1101 1163 94 79 1873 57 146 461 288 573 267 484 116210 12725 820 14937 55 248 180 70 78 90 73 216 765 940 489 239 112 69 86 1109 1491 80 102 96 244 226 62 249 307 2291 638 387 1509 908 128 424 537 63 113 102 114 1618 2860 374 156 102 87 215 119 525 1916 335 347 122 69 66 1319 1609 315 92 98 401 1389 65 184 53 1079 165 66 236 371 195 191 60 53 77 324 280 5335 920 1769 229 56
internal_value=-0.693212 -0.556611 -0.762854 -0.607831 -0.694108 -0.765758 -0.646532 -0.66141 -0.706599 -0.573424 -0.68806 -0.570068 -0.76605 -0.714297 -0.546714 -0.565762 -0.612822 -0.731293 -0.722639 -0.689834 -0.545117 -0.567966 -0.655647 -0.746704 -0.605276 -0.747493 -0.610908 -0.629084 -0.64337 -0.581519 -0.590543 -0.602512 -0.69595 -0.651085 -0.766888 -0.740207 -0.545006 -0.63644 -0.683248 -0.649157 -0.735844 -0.634093 -0.69546 -0.54495 -0.550886 -0.671474 -0.766916 -0.584239 -0.573969 -0.606511 -0.62759 -0.644992 -0.665166 -0.681861 -0.602901 -0.642423 -0.727585 -0.638046 -0.760675 -0.674418 -0.622559 -0.656922 -0.550927 -0.582354 -0.648002 -0.657803 -0.646299 -0.672497 -0.733162 -0.706784 -0.717663 -0.577397 -0.749827 -0.747271 -0.729996 -0.749535 -0.649931 -0.722927 -0.683027 -0.627102 -0.736595 -0.767238 -0.727312 -0.68181 -0.582399 -0.754642 -0.750583 -0.727817 -0.716284 -0.712319 -0.609188 -0.655444 -0.565867 -0.557873 -0.697905 -0.614964 -0.747743 -0.716315 -0.667053 -0.58824 -0.563009 -0.569913 -0.5782 -0.613016 -0.582693 -0.73989 -0.650181 -0.714224 -0.753606 -0.742308 -0.745404 -0.677047 -0.642026 -0.647307 -0.627747 -0.719069 -0.698522 -0.658655 -0.667213 -0.650058 -0.607107 -0.555839 -0.572844 -0.73032 -0.721169 -0.71258
internal_weight=113076 38182.7 74893.8 6183.11 3035.56 71858.2 2910 2394.67 2661.33 3273.11 1546.44 3216.89 71726.4 2515.33 31999.6 2476.22 848.222 1484.22 748.222 1031.11 29523.3 3181.11 798.222 2975.33 374.222 2960.67 612.444 364.222 423.556 1357.78 972.667 718.444 963.333 767.111 68751.1 1283.11 29500.7 446.444 607.778 254.222 625.333 190.222 410.667 29488 3663.56 320.667 68733.6 248.222 146 131.778 91.7778 180.667 115.556 274.667 67.7778 414 498 406.222 3372.44 201.111 283.333 215.778 1863.78 424.667 297.556 197.111 393.111 100.889 997.556 114.889 355.556 515.333 2827.56 2318.44 268.667 2049.78 371.778 136 176.222 268 882.667 65361.1 429.778 95.5556 447.111 1340.22 1004.89 117.778 319.111 296.444 65.1111 122.889 363.111 1823.33 133.111 130.889 178.889 42.4444 96.4444 537.778 835.778 478.222 316.667 42.2222 110 709.556 196.667 182.667 887.111 251.556 452.889 81.7778 148.667 134.889 55.5556 277.111 68.2222 83.1111 71.3333 174.444 87.5556 1611.33 274.444 407.111 101.111 54.8889
internal_count=508844 171822 337022 27824 13660 323362 13095 10776 11976 14729 6959 14476 322769 11319 143998 11143 3817 6679 3367 4640 132855 14315 3592 13389 1684 13323 2756 1639 1906 6110 4377 3233 4335 3452 309380 5774 132753 2009 2735 1144 2814 856 1848 132696 16486 1443 309301 1117 657 593 413 813 520 1236 305 1863 2241 1828 15176 905 1275 971 8387 1911 1339 887 1769 454 4489 517 1600 2319 12724 10433 1209 9224 1673 612 793 1206 3972 294125 1934 430 2012 6031 4522 530 1436 1334 293 553 1634 8205 599 589 805 191 434 2420 3761 2152 1425 190 495 3193 885 822 3992 1132 2038 368 669 607 250 1247 307 374 321 785 394 7251 1235 1832 455 247
is_linear=0
shrinkage=1


Tree=1
num_leaves=127
num_cat=0
split_feature=5 0 5 5 6 6 6 14 5 0 14 5 5 6 6 1 2 4 5 6 1 1 9 9 6 2 5 5 0 6 11 5 14 12 8 6 0 12 8 8 0 5 10 2 1 2 5 5 6 5 5 0 6 5 2 8 11 2 10 0 5 2 10 11 10 2 5 0 1 1 5 1 1 4 4 2 8 1 2 5 5 8 5 8 4 10 1 2 4 1 2 8 8 1 9 12 6 8 8 11 6 6 8 11 8 12 8 1 5 6 5 8 8 5 0 10 5 8 8 8 12 1 8 1 6 5
split_gain=380641 7890.03 3913.52 3411.39 2544.05 1314.52 628.003 476.472 359.797 633.99 331.075 258.128 246.269 424.914 238.142 234.912 215.386 201.713 198.575 215.378 169.85 129.145 145.38 107.034 101.118 99.9985 93.1902 91.5628 85.1003 79.1587 77.902 76.591 75.8839 74.6523 64.1784 61.9437 139.96 60.6287 58.4327 58.0745 55.5011 60.3156 54.4635 51.5874 50.2772 47.8894 47.8451 47.0395 44.571 87.6502 42.4174 41.3157 92.9777 40.0826 38.6347 38.3483 37.8141 36.9191 34.8628 34.1002 33.6492 33.582 37.2225 33.5608 33.0961 32.0136 30.7234 30.5246 29.9207 29.0306 28.852 28.7992 28.3093 26.6541 26.512 26.3937 26.1897 25.8087 25.1791 23.7051 23.613 22.8989 22.4356 21.8998 21.366 20.2982 20.0831 19.3224 20.3646 32.2929 18.693 20.4814 18.323 17.7028 17.06 16.716 17.6841 16.1622 16.0236 17.6952 15.6817 15.2453 15.2134 15.1683 15.1187 15.0074 14.5376 14.4666 14.2197 15.3146 13.1661 12.7576 12.7333 12.729 12.5653 17.4897 12.4394 11.6305 11.4686 10.7188 10.3885 10.378 10.3434 10.2461 10.0455 9.9406
threshold=0.17017260938882831 0.61250001192092907 0.095805045217275633 0.28366304934024816 2.5000000000000004 1.5000000000000002 2.5000000000000004 1.0000000180025095e-35 0.29329700767993933 0.77500000596046459 1.0000000180025095e-35 0.13340276479721072 0.046778045594692237 1.5000000000000002 3.5000000000000004 0.64583334326744091 0.46428571641445165 0.46428571641445165 0.35404258966445928 2.5000000000000004 0.46428571641445165 0.46428571641445165 1.0000000180025095e-35 1.0000000180025095e-35 2.5000000000000004 0.30952382087707525 0.21149917691946032 0.2350682616233826 0.46428571641445165 3.5000000000000004 1.0000000180025095e-35 0.21714902669191363 1.0000000180025095e-35 1.0000000180025095e-35 11.500000000000002 1.5000000000000002 0.46428571641445165 1.0000000180025095e-35 6.5000000000000009 11.500000000000002 0.77500000596046459 0.39926889538764959 1.0000000180025095e-35 0.30952382087707525 0.46428571641445165 0.15476191043853763 0.22283392399549487 0.14051175862550738 1.5000000000000002 0.026075057685375217 0.06974606961011888 0.46428571641445165 1.5000000000000002 0.2049907669425011 0.15476191043853763 10.500000000000002 1.0000000180025095e-35 0.46428571641445165 1.0000000180025095e-35 0.86607143282890331 0.081395104527473464 0.30952382087707525 1.0000000180025095e-35 1.0000000180025095e-35 1.0000000180025095e-35 0.58571431040763866 0.12601026892662051 0.30952382087707525 0.30952382087707525 0.22500000149011615 0.0096347993239760416 0.64583334326744091 0.30952382087707525 0.46428571641445165 0.46428571641445165 0.46428571641445165 12.500000000000002 0.58571431040763866 0.91666665673255932 0.40562529861927038 0.26314093172550207 16.500000000000004 0.25224792957305914 11.500000000000002 0.46428571641445165 1.0000000180025095e-35 0.46428571641445165 0.46428571641445165 0.6904762089252473 0.46428571641445165 0.18333333730697635 7.5000000000000009 8.5000000000000018 0.46428571641445165 1.0000000180025095e-35 1.0000000180025095e-35 2.5000000000000004 11.500000000000002 8.5000000000000018 1.0000000180025095e-35 1.5000000000000002 3.5000000000000004 6.5000000000000009 1.0000000180025095e-35 11.500000000000002 1.0000000180025095e-35 9.5000000000000018 0.46428571641445165 0.31090533733367925 3.5000000000000004 0.30213376879692083 9.5000000000000018 14.500000000000002 0.19138375669717791 0.46428571641445165 1.0000000180025095e-35 0.2049907669425011 9.5000000000000018 8.5000000000000018 10.500000000000002 1.0000000180025095e-35 0.22500000149011615 6.5000000000000009 0.30952382087707525 2.5000000000000004 0.35404258966445928
decision_type=2 2 2 2 2 2 2 2 2 2 2 2 2 2 2 2 2 2 2 2 2 2 2 2 2 2 2 2 2 2 2 2 2 2 2 2 2 2 2 2 2 2 2 2 2 2 2 2 2 2 2 2 2 2 2 2 2 2 2 2 2 2 2 2 2 2 2 2 2 2 2 2 2 2 2 2 2 2 2 2 2 2 2 2 2 2 2 2 2 2 2 2 2 2 2 2 2 2 2 2 2 2 2 2 2 2 2 2 2 2 2 2 2 2 2 2 2 2 2 2 2 2 2 2 2 2
left_child=2 3 12 4 16 66 11 18 9 25 14 23 17 60 27 29 31 48 19 33 26 22 74 42 50 53 -18 43 -16 37 39 35 40 75 46 -2 -37 47 -23 64 41 83 44 67 56 -21 71 123 49 81 -15 52 -33 -3 -30 120 -7 -35 101 106 -14 105 98 -45 73 -11 -4 -6 -49 84 -19 121 -36 -22 -13 -5 -52 -26 -68 90 119 -1 -75 87 -47 97 -44 -10 -89 -90 -20 95 -54 100 104 -92 -97 103 99 -63 -67 111 -28 110 113 117 -40 -31 109 -71 -77 -48 -74 -38 -78 -116 -41 -29 -69 -56 -46 -27 -39 -8 -81 -91
right_child=1 8 5 7 10 6 15 -9 32 65 -12 21 13 24 28 -17 20 70 79 45 30 38 -24 -25 77 34 102 61 54 107 -32 51 -34 57 72 36 94 122 59 116 -42 -43 86 63 55 69 58 68 -50 -51 76 -53 92 -55 80 -57 -58 -59 -60 -61 -62 62 -64 -65 -66 93 78 118 -70 108 -72 -73 112 82 -76 85 114 -79 -80 124 -82 -83 -84 -85 -86 -87 -88 88 89 125 91 -93 -94 -95 -96 96 -98 -99 -100 -101 -102 -103 -104 -105 -106 -107 -108 -109 -110 -111 -112 -113 -114 -115 115 -117 -118 -119 -120 -121 -122 -123 -124 -125 -126 -127
leaf_value=-0.070073270780333541 0.11749523976734444 0.055040056777454785 0.068983786242657538 0.12422017175917949 -0.015110218754868503 -0.030621070804739133 -0.058275834262091909 -0.066813718389343787 0.119585977426096 0.13256676562218656 -0.073434577606259016 0.014323854957594416 0.0093241656662041931 -0.06039498628448034 -0.053243345760404563 0.040131668766813351 0.0074030307307023924 0.090858327855838333 0.13040648605006069 0.10070225818604606 0.11100635195201075 -0.011336676406157403 0.11409114063865407 0.10284473920316667 -0.069058662804059326 0.025951953088398289 0.038474785502007211 0.037622188746228434 0.039590397753210937 -0.066488989786848959 0.13382260396215837 0.11608801439271357 0.010109038952045526 0.12981812134452997 0.04219773832208807 0.010582572662588299 0.048234307748675397 -0.025089628088469471 0.033233890669822325 0.071155608277350971 0.13521465813467978 0.132881804198965 -0.0052802246046436069 -0.015116921055025432 -0.013099137497509086 0.002348380139791462 0.067149892113603005 -0.043775532165736167 -0.072595391820579516 -0.036605212962857722 -0.048097536193807015 0.11420905878135845 0.019214608433066882 0.11315867425220692 -0.035618717534554555 0.022227132079149267 0.047772028097789979 0.03069905772168538 0.024867476531616035 0.12358163062522172 0.065350831466986004 -0.0044217549789946752 0.081713195286679613 0.027506904867550409 0.10742725975897248 0.10060126804963875 0.11618778512528086 0.022330746405941137 -0.013221804801779631 0.066560751858289607 0.0020726282578784959 0.061144736360361975 0.08696341814099337 0.045332391927966981 -0.016806640136523342 0.083302129352379656 -0.045550865437411811 0.0045863602697493178 0.06905795860578276 0.12916489777913295 0.017937930262207798 -0.055355138684923526 0.069645312426223266 0.1296210474882997 0.069422606874825654 0.1346634518013384 -0.067798683035329418 0.11150141546245336 0.11413758141529673 0.011409268480492993 0.10561477289909008 0.12012735022563698 0.074097479981459158 0.13027221750526147 0.1105028645924374 0.021616751708051926 0.099510966520254637 0.11731396006391784 0.040537317503884646 0.045536497901869304 0.12707163825065435 0.021987015315755851 0.064524692818456117 0.13571366508396646 0.094293910325118815 0.11947807284170101 0.059702542117020932 -0.034591780419572664 0.073142226448146691 0.026378206630970416 0.10245080945100869 0.098320761123249084 0.12089971494175678 0.08146108025471227 -0.0069307869142266349 -0.066366581142131939 0.098385065689279447 0.090447125276750806 0.055616341562491928 -0.0040565388610555647 -0.057737621478312462 -0.015558047462078934 0.0095963459193287512 -0.044725062915196741 0.11820621096746864 0.067911880094428778
leaf_weight=10104.82350371778 73.310646384954453 35.96641243994236 81.463841885328293 306.43958589434624 31.983665078878403 394.32406784594059 375.19746766984463 37.802683353424072 569.07157421112061 1620.923515573144 198.48020724952221 100.85293030738831 123.01320309937 688.59024897217751 233.58229903876781 76.821899056434631 183.43336535990238 11.138543128967283 159.68751034140587 71.693780511617661 21.163501232862473 36.391492024064064 27.018866896629333 17.437532559037209 2334.9121880233288 24.144395872950554 89.592859551310539 26.173946619033813 33.693034484982491 529.6051764190197 50.546040058135986 92.016345292329788 12.282700806856154 12.006406903266905 26.510766744613647 83.482764378190041 51.568447917699814 33.34856815636158 75.453249454498291 57.145112529397011 26971.323179259896 2701.3693950176239 15.304691448807715 299.10079923272133 92.72381879389286 39.023593619465828 130.61973157525063 171.83467695116997 54671.272550582886 204.14604684710503 534.15446628630161 354.50879034399986 43.182597503066063 169.36548025906086 107.98441419005394 113.85581004619598 16.007343903183937 43.185767143964767 52.672182574868202 17.568196758627892 34.264077052474022 76.300890162587166 28.178684949874878 54.613781780004501 33.985451638698578 176.85474024713039 135.03765860199928 46.882999360561371 150.13820040225983 51.353974416851997 51.257774338126183 27.601699441671371 75.946982964873314 281.9758485853672 212.49552163481712 125.01147803664207 49.426129013299942 11.957442328333853 35.866124153137207 899.6963097602129 35.191559180617332 271.36794139444828 143.01003661751747 351.07862813770771 17.064638257026672 59.051760047674179 79.947302132844925 167.80409550666809 31.169104114174843 14.237066090106966 255.02319347858429 304.88740935921669 23.474770709872246 156.68181970715523 52.576224818825722 12.789730146527292 16.933608084917068 168.43921250104904 56.467237591743469 23.088180810213089 81.845429569482803 14.714665219187735 149.68956752121449 26.909752994775772 87.43200010061264 13.224481552839277 166.01840882003307 38.104426592588425 137.16025532782078 44.05328793823719 318.41127163171768 43.843660429120064 43.457032412290573 65.353566601872444 91.166302338242531 14.321674972772596 157.66635994613171 17.311538651585579 57.76171737909317 35.824318110942841 15.165676429867743 40.007676929235458 60.456981003284454 222.06061846017838 272.44650466740131 17.174552291631699
leaf_count=46653 325 158 366 1324 142 1791 1716 174 2458 6982 914 449 565 3168 1064 343 827 50 691 310 92 162 117 76 10748 108 396 115 147 2430 220 405 55 52 117 370 227 151 335 252 116071 11636 70 1354 417 174 573 781 252455 941 2444 1538 190 735 487 511 73 193 235 76 155 343 125 246 148 768 596 209 681 227 234 122 334 1244 964 544 226 54 157 3882 157 1253 627 1517 75 257 368 725 135 63 1103 1319 103 676 229 57 74 732 253 103 355 65 662 117 383 58 737 171 603 194 1382 192 191 285 414 66 693 76 257 161 69 179 273 1014 1178 75
internal_value=-0.000126202 0.122843 -0.0686739 0.0739409 0.0391262 -0.0153976 -0.0245058 0.109702 0.132825 0.115397 -0.0136973 0.000403105 -0.0712074 -0.0589719 -0.00362682 -0.0452521 0.0738149 -0.0719346 0.111699 0.0975194 0.0595348 0.0238027 0.00280838 -0.0195729 -0.0623713 0.0737811 0.0342161 0.0139423 -0.0324085 -0.0494016 0.0738911 0.0918126 0.134363 0.108877 0.0612787 0.0758052 0.0668269 -0.0410256 0.0479904 0.0695321 0.134413 0.128799 -0.0225078 0.00154366 -0.0171964 0.0641279 0.0491812 -0.0449331 -0.0720205 -0.06905 -0.0516185 0.104718 0.083512 0.102978 -0.00952735 0.00198631 -0.0275629 0.0522612 0.0608443 0.056325 0.02153 0.0391955 0.0288291 -0.00853577 0.0598642 0.129393 0.0942524 0.0276381 -0.0295281 0.0550439 0.017922 0.018439 0.0889372 0.056241 -0.00678712 0.111988 -0.0428481 -0.0686834 0.106297 0.122177 -0.0187727 -0.0696883 0.0535138 0.119211 0.0227555 0.106617 -0.0577535 0.11464 0.102423 0.0780809 0.115231 0.111122 0.0385427 0.117009 0.085102 0.101479 0.0659937 0.104024 0.0192678 0.0071836 0.108976 0.0708611 0.054771 0.0992643 0.0785668 0.0728361 0.0514318 -0.0643481 0.0628308 0.0480069 0.0970523 0.0749833 0.0993145 0.0668064 -0.0247475 -0.0150001 0.0911414 0.0586518 0.0407037 -0.0277562 -0.0193738 6.47351e-05 -0.00273477 -0.0532377 0.126618 0.0423025
internal_weight=112893 40406.7 72486.3 6850.03 3470.96 3290.5 3038.13 3379.07 33556.7 2721.16 1375.84 1380.56 69195.8 3881.81 1177.36 1657.57 2095.11 65314 3341.27 1419.8 1168.21 635.799 340.367 744.766 3724.53 684.851 422.716 731.088 446.276 1580.75 745.492 926.906 30835.5 1059.46 479.519 413.724 340.413 1013.04 295.431 694.946 30823.2 3851.9 727.329 490.343 632.077 360.35 333.604 919.231 65251.6 10580.3 1377.66 513.183 158.674 205.332 212.693 221.745 410.331 55.1922 241.85 259.04 157.277 240.745 184.035 353.715 480.135 2036.31 252.368 136.628 321.973 288.656 62.3963 91.7538 145.915 446.149 313.348 1004.26 689.069 2346.87 170.904 1921.46 179 10376.2 424.986 1150.54 56.0882 697.823 95.252 799.456 230.385 62.5807 749.321 589.634 66.6574 415.382 256.93 284.747 29.7233 638.772 155.856 99.3891 258.7 189.178 239.282 470.333 204.354 56.71 241.472 567.71 232.568 95.4073 443.423 174.463 119.404 116.922 154.914 105.488 214.811 43.4855 104.645 143.809 107.889 64.1521 93.8055 597.258 1172.14 31.4116
internal_count=508934 174614 334320 30089 15427 14894 13775 14662 144525 11790 6211 6215 319426 17840 5297 7560 9216 301586 14488 6184 5161 2840 1530 3375 17120 3009 1885 3281 2016 7217 3276 4055 132735 4601 2116 1819 1494 4616 1310 3056 132680 16609 3299 2208 2861 1583 1474 4192 301302 48847 6318 2236 698 893 952 997 1864 245 1065 1148 720 1073 824 1600 2111 8781 1119 608 1462 1273 284 409 642 1963 1413 4356 3150 10802 753 8304 805 47906 1871 4973 249 3032 438 3456 998 273 3244 2553 293 1799 1124 1234 131 2775 699 446 1123 830 1058 2043 895 249 1072 2601 1024 421 1926 765 525 512 706 480 945 191 466 648 486 287 424 2730 5060 138
is_linear=0
shrinkage=0.05


Tree=2
num_leaves=127
num_cat=0
split_feature=5 0 5 5 0 7 7 3 7 5 15 7 3 3 2 3 3 7 14 5 7 7 1 3 0 8 5 5 7 4 7 5 0 3 3 2 7 5 5 2 9 5 3 0 9 7 0 3 5 5 5 3 7 0 7 5 8 7 0 3 2 5 7 7 7 8 7 3 2 7 7 10 3 7 7 5 7 8 7 7 3 2 7 1 7 5 7 3 5 4 4 2 9 11 10 10 7 3 0 2 7 10 7 1 3 7 7 1 5 3 8 5 5 7 5 1 3 4 14 10 5 5 5 8 2 0
split_gain=340384 6505.59 3635.88 2240.6 1497.11 1397.42 1356.21 1012.01 779.214 750.758 651.958 647.106 423.586 396.054 444.97 390.889 370.333 267.887 266.59 225.933 512.604 208.688 197.91 194.557 175.16 163.886 153.956 127.06 126.94 112.491 108.387 92.9619 82.6034 78.7296 77.6048 69.7104 68.5526 66.8584 66.0212 65.9045 63.6582 59.6918 55.5787 55.1514 53.841 49.3352 48.9203 47.8916 47.3751 47.2701 46.4182 45.6477 41.3783 45.3365 38.998 38.4665 38.4598 38.4557 52.8717 37.9087 41.4971 37.8927 36.7853 36.6516 36.6455 35.3458 34.8745 34.4185 35.2813 32.3711 31.8209 31.528 29.5246 29.2018 28.4487 107.809 39.5233 31.4298 48.5083 28.3346 27.8025 27.3838 36.1227 26.7328 26.4365 26.1264 25.8743 25.2338 25.1994 25.0755 27.3194 24.86 24.8296 24.524 30.2083 23.1295 22.9202 22.1926 21.2648 38.738 28.0139 21.0409 20.9347 20.8105 20.4162 24.4874 20.1706 20.1624 20.0147 19.5548 19.4969 18.9839 18.853 18.7388 19.5564 18.5915 18.2276 18.2035 18.178 34.1007 32.449 18.1228 17.9787 17.8829 17.3853 17.0224
threshold=0.17017260938882831 0.41428571939468389 0.095805045217275633 0.29329700767993933 0.77500000596046459 14.500000000000002 18.500000000000004 0.70833334326744091 23.500000000000004 0.30213376879692083 1.0000000180025095e-35 8.5000000000000018 0.46428571641445165 0.30952382087707525 0.30952382087707525 0.46428571641445165 0.30952382087707525 12.500000000000002 1.0000000180025095e-35 0.046778045594692237 7.5000000000000009 14.500000000000002 0.46428571641445165 0.30952382087707525 0.6904762089252473 10.500000000000002 0.13340276479721072 0.2682181596755982 15.500000000000002 0.46428571641445165 19.500000000000004 0.33903478085994726 0.61250001192092907 0.61250001192092907 0.91666665673255932 0.15476191043853763 25.500000000000004 0.2049907669425011 0.24632639437913897 0.63333335518836986 1.0000000180025095e-35 0.22283392399549487 0.91666665673255932 0.30952382087707525 1.0000000180025095e-35 14.500000000000002 0.6904762089252473 0.46428571641445165 0.06974606961011888 0.35025481879711157 0.11240791901946069 0.30952382087707525 5.5000000000000009 0.46428571641445165 19.500000000000004 0.22892250120639804 11.500000000000002 20.500000000000004 0.61250001192092907 0.46428571641445165 0.22500000149011615 0.21149917691946032 23.500000000000004 6.5000000000000009 21.500000000000004 7.5000000000000009 10.500000000000002 0.30952382087707525 0.22500000149011615 18.500000000000004 18.500000000000004 1.0000000180025095e-35 0.30952382087707525 18.500000000000004 6.5000000000000009 0.026075057685375217 4.5000000000000009 16.500000000000004 5.5000000000000009 20.500000000000004 0.46428571641445165 0.58571431040763866 6.5000000000000009 0.30952382087707525 14.500000000000002 0.001759138598572463 21.500000000000004 0.61250001192092907 0.13340276479721072 0.61250001192092907 0.46428571641445165 0.30952382087707525 1.0000000180025095e-35 1.0000000180025095e-35 1.0000000180025095e-35 1.0000000180025095e-35 21.500000000000004 0.77500000596046459 0.30952382087707525 0.30952382087707525 16.500000000000004 1.0000000180025095e-35 22.500000000000004 0.30952382087707525 0.22500000149011615 16.500000000000004 18.500000000000004 0.22500000149011615 0.14051175862550738 0.46428571641445165 10.500000000000002 0.19801334291696551 0.38917404413223272 4.5000000000000009 0.081395104527473464 0.46428571641445165 0.30952382087707525 0.61250001192092907 1.0000000180025095e-35 1.0000000180025095e-35 0.24077622592449191 0.19801334291696551 0.2049907669425011 11.500000000000002 0.30952382087707525 0.61250001192092907
decision_type=2 2 2 2 2 2 2 2 2 2 2 2 2 2 2 2 2 2 2 2 2 2 2 2 2 2 2 2 2 2 2 2 2 2 2 2 2 2 2 2 2 2 2 2 2 2 2 2 2 2 2 2 2 2 2 2 2 2 2 2 2 2 2 2 2 2 2 2 2 2 2 2 2 2 2 2 2 2 2 2 2 2 2 2 2 2 2 2 2 2 2 2 2 2 2 2 2 2 2 2 2 2 2 2 2 2 2 2 2 2 2 2 2 2 2 2 2 2 2 2 2 2 2 2 2 2
left_child=2 6 7 4 8 11 21 19 13 16 18 63 22 14 41 26 35 55 24 29 113 121 30 27 31 38 44 93 48 74 51 36 59 61 50 43 65 84 73 97 56 45 62 -8 71 -3 -12 49 80 102 -17 92 53 -9 104 66 -28 58 -40 60 -10 79 -14 -4 111 67 -16 68 -5 -60 101 91 -32 89 75 77 -77 -1 -79 -18 -22 -6 -83 -73 -27 -80 118 -25 -65 90 -19 -13 -7 94 98 -34 -74 122 -23 -100 -101 -70 -11 -47 105 -24 125 -86 -53 -30 -68 -45 116 -21 -115 -72 -33 -20 119 -37 -121 -2 -15 -50 -31 -39
right_child=1 3 5 10 81 12 9 52 32 47 46 15 42 39 17 34 33 25 117 20 28 23 54 87 -26 37 40 -29 109 124 72 112 95 -35 -36 86 -38 106 57 -41 -42 -43 -44 64 -46 103 -48 -49 123 -51 -52 108 -54 -55 -56 -57 -58 -59 69 -61 -62 -63 -64 88 -66 -67 110 -69 70 -71 115 83 96 -75 -76 76 -78 78 85 -81 -82 82 -84 -85 107 -87 -88 -89 -90 -91 -92 -93 -94 -95 -96 -97 -98 -99 99 100 -102 -103 -104 -105 -106 -107 -108 -109 -110 -111 -112 -113 -114 114 -116 -117 -118 -119 -120 120 -122 -123 -124 -125 -126 -127
leaf_value=-0.068738017171139448 0.078393862013583282 0.087320209538469237 0.11006738813749316 0.11069336211496161 0.12171852385218292 -0.044035197926473299 -0.045918988998595957 0.076790590084815535 0.024266706277432024 0.051883345513330681 -0.069232418983844343 -0.011079596193710519 0.053618786260118761 0.085994872362325669 0.076092103823133014 0.0028566485239708149 0.042387263645961348 0.06157959126130659 -0.060487420083492283 0.089438820672128549 -0.060930003398910117 -0.033293465183131088 0.0083386238851346408 0.083547371030304907 0.12418321735117055 0.059243539183684281 -0.00024855001198203092 0.070036421688718972 -0.068916280715851416 -0.035983300232202885 -0.066443317782234029 0.10786675476631635 0.047575768109059911 0.10631411563219802 0.1314674374358806 -0.045439656886135125 0.032997442471751202 0.066056619973162964 0.014958801040314287 0.051042118852433926 0.10583865739507592 0.10376416540265546 0.1369521075747257 -0.0068233409754191246 0.079835206077861598 -0.018199579038574065 0.03204960532933674 0.12082512459374117 -0.044774000711946885 0.083340092511188402 0.066133348914542658 -0.020796194322548343 0.10451025717376737 -0.02206124944326178 -0.039277268362166246 0.084577989689299818 0.035129088865148171 -0.030105062222824594 0.096610986438102661 0.024121745860324437 -0.052318189230109252 0.042005500684833864 -0.03035105806272902 0.043908839177573045 -0.022539810372535673 0.11048634926707512 0.014715801284978083 0.11309181407267908 0.071762050935822191 0.01656725179070602 0.057740904036300104 0.015579944941884877 -0.00023105173307724826 -0.039879085378561489 -0.070912348594198593 0.048607741562864265 -0.030901966295340227 -0.070266335732195817 0.0028045229064468853 -0.030655763517752989 -0.012798902864072254 0.12339280091002217 0.093913239530434151 -0.067275615809833253 -0.034722861498300041 -0.071964098332421109 -0.063868623230140767 0.12805491599581739 0.09463445246658303 0.045170125134914266 -0.014015618067217848 -0.036525227156381783 0.030647923129589718 0.054365451601251939 0.045425103118686028 -0.022691638537655535 -0.05535923126685436 0.12777423740696284 0.062408820046543627 0.023828278585251148 -0.03999680580388007 0.12272811891306967 -0.0010855803365603283 0.051684393498947878 -0.0297916294430851 0.059270152032380709 0.038297513776348074 0.027132503498233148 0.031718429750873273 -0.028343329524394285 0.062141251706741646 0.067717594365649905 0.11977403137986316 0.022329270294977221 0.074186595202199307 -0.013177347503261964 0.12099514090814525 0.019367865378565288 -0.07163266303414649 -0.034328531049564223 0.065696221205752942 0.10599124970029605 0.10584815790700573 -0.026620841718499672 0.021559515127391363 0.10248447247384332
leaf_weight=5590.4057017862797 74.344760224223137 190.64786173403263 158.76849927008152 72.516290068626404 1663.5979665666819 623.42476218938828 90.567819595336914 35.783339500427246 20.003760904073715 48.744587957859039 44.086385950446129 198.89322066307068 73.18992030620575 146.67826247215271 92.43924817442894 36.517258882522583 18.609366938471794 12.872952118515967 17.392880484461788 17.042067795991898 619.24892553687096 60.863135263323784 53.845438167452812 112.19500675797462 29182.34650953114 21.721817195415497 238.1653827726841 115.82453858852386 2297.8980434089899 20.884269580245018 895.23439210653305 778.65300768613815 47.776452839374542 31.056321665644646 38.427631661295891 135.52101801335812 35.482695922255516 109.29460294544697 118.63869178295135 62.139830946922302 18.699168413877487 393.5603386759758 17.149317592382431 12.33160264790058 11.531719624996184 12.567382127046583 16.341766834259033 40.375405862927437 481.57385714352131 100.22804619371891 140.47114872932434 52.642948731780052 63.948041662573814 17.161857157945633 33.992702677845955 246.30041572451591 113.40150414407253 26.622268885374069 41.993366792798042 23.589332163333893 152.77001631259918 77.810699135065079 15.870968177914618 45.42995223402977 40.674707278609276 680.41102240979671 57.367468848824501 124.60562175512314 123.66979423165321 18.064871951937675 22.795729607343674 11.165070474147795 30.00307759642601 68.320574536919594 57532.167987629771 19.770676642656326 74.624577507376671 88.631021648645401 52.163034170866013 46.335012838244438 31.531209900975227 191.68700160086155 226.94139432907104 76.01264026761055 28.616469621658325 15.056011691689489 350.8445852547884 44.468148693442345 53.101817771792412 24.65004800260067 166.97047539055347 185.52250863611698 11.331490427255629 22.003742307424545 28.862249433994293 15.513984665274618 50.740255013108253 90.97478112578392 22.163897231221199 29.51419386267662 41.179354399442673 24.216194152832031 30.217174425721169 69.929903522133827 16.348034054040909 42.014270201325417 43.763802617788315 24.413731589913368 27.686070933938026 30.086391404271126 34.827700644731522 27.791233375668526 3037.2802958190441 87.468424454331398 22.95104107260704 15.542218655347822 400.32043552398682 12.1022332906723 40.682067513465881 17.707570716738701 14.956973016262053 297.68611823022366 512.37206868827343 188.8758759200573 35.33518448472023 45.387277096509933
leaf_count=26515 325 814 680 304 6945 2877 411 160 87 212 199 906 325 632 405 164 83 56 82 77 2915 268 239 488 121691 96 1068 499 10850 95 4187 3274 206 134 165 617 152 473 515 269 79 1661 74 55 49 55 71 171 2247 424 616 244 284 78 154 1061 500 117 182 103 700 343 72 202 180 2867 253 524 525 79 97 51 138 305 273105 92 349 418 246 209 146 805 956 359 129 71 1636 190 230 109 740 851 51 99 129 68 235 385 97 134 188 102 133 301 73 186 190 107 125 139 153 121 12694 401 102 66 1680 54 193 81 65 1271 2176 873 160 195
internal_value=-0.000210179 0.113307 -0.0670483 0.117723 0.0864479 -0.0155573 0.0247085 -0.069549 0.0633541 -0.0113095 0.122247 0.0240145 -0.0425588 0.0714211 0.058637 0.00687739 -0.0314344 0.0402174 0.122534 -0.0698047 -0.0579239 0.0724064 -0.0481712 0.0505169 0.122663 0.0221923 -0.00831451 0.0281899 -0.0613666 -0.0705121 -0.0529964 0.114315 -0.0193228 0.0341667 0.0670615 -0.0470308 0.101365 0.0530854 0.00454044 0.100525 0.0159442 0.0913003 0.0545267 -0.0191274 -0.0269063 0.0733419 -0.0418424 0.0716307 -0.048988 0.0605461 0.0530777 -0.038208 0.0774419 0.0447484 0.00764029 0.0716441 0.0111629 0.0259573 0.0343095 -0.0353336 -0.0434512 0.0184711 0.0386551 0.0952011 0.010904 0.103645 0.0543904 0.0915027 0.0811057 0.0725347 0.0695842 -0.0295164 -0.0638316 -0.0115778 -0.0705748 -0.0672499 -0.014249 -0.0681206 -0.0459735 -0.00972578 -0.058598 0.118842 0.107412 -0.0566641 0.0127841 -0.0139425 -0.0555739 0.0961806 0.0712464 -0.0021225 -0.00860461 -0.0233599 -0.042702 0.00449894 -0.00151067 0.0303516 -0.0348744 0.104625 -0.0103232 0.00473255 -0.0133502 0.0801077 0.0316131 0.0410385 0.0218537 0.0306614 0.0682664 -0.00624625 -0.00269659 -0.0683919 0.0326313 0.0448077 0.117691 0.0406396 0.033108 0.0289906 0.112324 -0.0277217 -0.041641 -0.0343863 0.0114724 0.100476 0.10143 -0.03966 0.000183646 0.0767454
internal_weight=112157 41564.3 70592.2 39590.8 5003.02 3269.58 1973.56 67322.6 2920.79 1124.45 34587.8 1326.11 1943.47 2661.14 1848.97 1068.81 904.889 1182.27 34527.3 67205.7 3776.68 849.105 1837.26 477.074 34497.8 751.331 853.391 320.411 3649.21 63429 1691.06 5315.49 259.654 173.811 215.416 731.078 1099.24 273.198 478.133 812.165 370.266 666.705 106.21 171.365 483.125 273.145 60.4282 219.565 1321.23 179.19 176.988 715.085 116.893 52.9452 146.2 430.935 351.567 205.319 178.697 196.363 172.774 142.755 89.0609 257.3 80.7975 1063.76 184.634 383.346 258.74 60.0582 186.224 471.593 975.978 272.814 63372.8 5840.65 94.3953 5746.26 155.85 64.9444 650.78 2082.23 418.628 87.1777 74.752 67.219 559.712 156.663 98.5318 204.493 179.843 384.416 634.756 204.587 182.583 63.2904 80.7433 750.025 153.721 92.8574 70.6935 147.886 78.9618 82.4973 112.208 95.8597 198.446 53.0302 80.329 2327.98 92.1952 40.1228 4216.25 127.462 110.419 38.3379 1178.97 29.4951 208.868 168.186 32.6645 372.031 659.05 670.45 56.2195 154.682
internal_count=508689 174466 334223 165710 21328 14900 8756 319323 12622 5068 144382 5920 8980 11458 7996 4808 4128 5165 144112 318801 17750 3688 8509 2092 143976 3293 3863 1414 17170 301051 7857 22285 1164 769 945 3359 4637 1190 2103 3462 1647 2831 471 767 2216 1170 270 940 6181 769 780 3297 522 238 652 1872 1568 893 776 890 787 635 397 1112 356 4485 811 1618 1094 261 790 2167 4560 1210 300796 27691 441 27250 735 292 3061 8706 1761 410 332 317 2592 678 432 905 796 1757 2928 915 816 274 373 3193 687 419 322 627 345 356 498 425 858 236 369 10989 406 176 17648 580 503 163 4954 136 956 763 146 1596 2808 3120 255 668
is_linear=0
shrinkage=0.05


Tree=3
num_leaves=127
num_cat=0
split_feature=5 5 5 7 7 15 3 7 4 7 3 3 3 7 5 3 5 7 1 7 7 1 3 7 5 1 4 4 5 3 4 5 5 7 8 9 8 12 3 9 15 3 3 5 7 8 4 5 7 7 1 9 7 6 12 5 7 3 8 12 10 8 3 3 7 1 8 3 4 1 7 3 3 5 7 6 7 5 8 7 7 9 8 1 5 8 5 5 8 8 12 5 5 7 3 3 5 8 9 10 11 3 5 8 7 9 1 11 5 5 7 10 8 7 5 10 1 5 5 12 15 7 7 4 5 7
split_gain=306242 5598.39 3513.66 3502.88 1278.46 1055.7 974.616 651.046 535.168 531.135 503.476 389.565 359.976 278.728 357.83 269.965 228.274 455.899 201.926 196.629 176.327 175.588 136.718 129.269 121.594 120.143 108.724 78.7009 78.0588 67.6943 61.2623 61.0339 60.3285 106.9 62.9438 59.2305 58.9234 54.8836 54.412 53.8211 52.8584 51.5098 50.9112 49.6789 49.139 48.7656 48.4167 47.2611 45.7009 44.7435 43.6824 41.5826 41.1778 40.906 49.3572 40.1592 37.929 37.7602 37.0732 36.6642 36.387 36.221 35.8922 35.73 35.6196 35.438 34.5314 48.8333 33.7513 33.5245 33.168 32.9992 32.7684 32.5971 32.2252 31.2022 30.7926 103.295 39.4321 56.6526 34.3806 30.2457 29.1964 28.9206 28.7936 27.9817 27.2281 26.7334 29.0418 26.5586 25.4025 25.1809 24.6148 23.7576 22.4678 22.3099 21.8361 21.805 26.5435 21.6206 41.7325 21.5526 20.0945 19.8636 19.7341 19.477 19.4506 18.7722 18.5331 18.4428 24.6383 18.3486 26.8677 17.737 17.5633 17.2483 16.8512 16.5127 16.3254 16.1302 46.5198 16.0822 16.0335 23.1437 15.4265 15.0494
threshold=0.17017260938882831 0.26314093172550207 0.095805045217275633 18.500000000000004 14.500000000000002 1.0000000180025095e-35 0.70833334326744091 13.500000000000002 0.61250001192092907 8.5000000000000018 0.30952382087707525 0.46428571641445165 0.46428571641445165 18.500000000000004 0.31521129608154302 0.30952382087707525 0.046778045594692237 7.5000000000000009 0.46428571641445165 19.500000000000004 9.5000000000000018 0.58571431040763866 0.30952382087707525 15.500000000000002 0.14051175862550738 0.46428571641445165 0.46428571641445165 0.61250001192092907 0.30213376879692083 0.61250001192092907 0.61250001192092907 0.2049907669425011 0.35404258966445928 18.500000000000004 9.5000000000000018 1.0000000180025095e-35 9.5000000000000018 1.0000000180025095e-35 0.46428571641445165 1.0000000180025095e-35 1.0000000180025095e-35 0.91666665673255932 0.30952382087707525 0.29329700767993933 16.500000000000004 11.500000000000002 0.6904762089252473 0.36494061350822454 6.5000000000000009 12.500000000000002 0.64583334326744091 1.0000000180025095e-35 23.500000000000004 2.5000000000000004 1.0000000180025095e-35 0.06974606961011888 6.5000000000000009 0.41428571939468389 7.5000000000000009 1.0000000180025095e-35 1.0000000180025095e-35 10.500000000000002 0.30952382087707525 0.53571429848670971 21.500000000000004 0.64583334326744091 9.5000000000000018 0.30952382087707525 0.46428571641445165 0.30952382087707525 24.500000000000004 0.30952382087707525 0.30952382087707525 0.12601026892662051 21.500000000000004 1.5000000000000002 6.5000000000000009 0.026075057685375217 16.500000000000004 5.5000000000000009 4.5000000000000009 1.0000000180025095e-35 10.500000000000002 0.73214286565780651 0.14051175862550738 12.500000000000002 0.21149917691946032 0.2049907669425011 10.500000000000002 11.500000000000002 1.0000000180025095e-35 0.11945400387048723 0.0022193945478647952 21.500000000000004 0.46428571641445165 0.30952382087707525 0.21714902669191363 9.5000000000000018 1.0000000180025095e-35 1.0000000180025095e-35 1.0000000180025095e-35 0.61250001192092907 0.19138375669717791 10.500000000000002 6.5000000000000009 1.0000000180025095e-35 0.30952382087707525 1.0000000180025095e-35 0.2049907669425011 0.41568888723850256 12.500000000000002 1.0000000180025095e-35 8.5000000000000018 16.500000000000004 0.28842610120773321 1.0000000180025095e-35 0.46428571641445165 0.22283392399549487 0.14773248881101611 1.0000000180025095e-35 1.0000000180025095e-35 8.5000000000000018 12.500000000000002 0.46428571641445165 0.2049907669425011 6.5000000000000009
decision_type=2 2 2 2 2 2 2 2 2 2 2 2 2 2 2 2 2 2 2 2 2 2 2 2 2 2 2 2 2 2 2 2 2 2 2 2 2 2 2 2 2 2 2 2 2 2 2 2 2 2 2 2 2 2 2 2 2 2 2 2 2 2 2 2 2 2 2 2 2 2 2 2 2 2 2 2 2 2 2 2 2 2 2 2 2 2 2 2 2 2 2 2 2 2 2 2 2 2 2 2 2 2 2 2 2 2 2 2 2 2 2 2 2 2 2 2 2 2 2 2 2 2 2 2 2 2
left_child=2 3 6 7 9 8 16 20 13 56 21 19 24 28 22 18 26 125 27 25 104 30 36 38 35 37 76 39 49 73 52 62 33 -10 43 60 59 42 55 53 44 70 81 71 -39 115 -7 57 75 -3 63 61 82 87 107 -19 -4 58 -16 74 103 -26 97 64 -12 95 67 90 -40 -62 -13 -35 -21 -14 -15 -8 77 78 -1 -80 -79 118 119 99 -44 117 -66 -9 -89 -57 114 -58 -81 -74 -25 105 -29 98 102 100 -23 -24 -22 -11 -2 111 -65 113 -17 110 -30 112 -33 -55 -51 -20 -105 -32 -6 -5 -121 -28 -91 -124 -47 -18
right_child=1 5 4 10 11 46 48 15 32 12 50 41 29 14 47 108 17 23 45 72 31 83 101 94 51 -27 121 96 109 -31 85 65 -34 34 -36 -37 -38 40 68 -41 -42 -43 84 -45 -46 124 -48 -49 -50 66 -52 -53 -54 54 -56 89 91 -59 -60 -61 69 -63 -64 106 86 -67 -68 -69 -70 -71 -72 -73 93 -75 -76 -77 -78 80 79 92 -82 -83 -84 -85 -86 -87 -88 88 -90 122 -92 -93 -94 -95 -96 -97 -98 -99 -100 -101 -102 -103 -104 116 -106 -107 -108 -109 -110 -111 -112 -113 -114 -115 -116 -117 -118 -119 -120 120 -122 -123 123 -125 -126 -127
leaf_value=-0.067150080922610933 0.11447971134838748 0.10103268607447501 0.10197396608093351 -0.046340068243484724 -0.051952201848296166 -0.068152189209987488 0.067979632327673734 -0.037744213690157749 0.11223447247000924 -0.026315066910113261 0.046236287687663469 0.048054700785393901 0.021116251700951019 0.010637612833625382 0.037034042020074355 0.068507390266978149 0.048430612381097755 -0.058518847661404708 0.03930436682475013 -0.063976284423901644 0.015030948256284782 0.090110905867380464 0.063687839596901996 -0.067345824052106221 -0.00087690691982388329 0.020786638475841737 0.05159312067184714 0.023741443673979661 0.1096949146750807 0.11921340004929755 -0.038856183838581138 0.057459546720612854 0.11546678110615625 0.0038010486415875492 0.10333584865946675 0.075407793438226539 0.043334437080902628 0.077599750952886709 0.034157642634218478 0.066295223609856346 -0.073469129961318574 0.12590153818028246 -0.025818939652226869 0.082728626703767211 -0.023676013836000841 0.056880146499482323 0.02188275623085148 0.099690251727877613 0.10352034216033874 0.032369824436488746 0.085779172985951821 0.097202224278795782 -0.057735692393372152 0.021217974869957901 0.084995724294598826 -0.046746111421904019 0.021903629510814388 0.111211202682092 0.083577355880048776 0.065253942874696672 0.021654996333648965 0.036032889077612269 0.090177381927325523 0.02612082911403775 -0.027040936615517749 0.11195896044350749 0.094985353406187717 0.10133152780810475 -0.034496413557634165 -0.064993416631982312 -0.038745300496071999 0.082229784770933595 0.00067860014415204849 0.066663797823598867 -0.042078350263154048 -0.0065298609322531663 -0.06940435622069549 0.04461167220398507 -0.06879799694283488 0.0050694722472018044 -0.029335063522872108 0.0361506882510143 -0.011659723048584113 0.098642546974650497 0.036048045804871635 0.064198768643049492 0.026906822936128123 -0.017185066151108559 0.040020626401364681 -0.039061583873747779 0.10778995710991945 0.078039486243153877 -0.067067423802061349 -0.053237812273601387 -0.024683883827576289 0.099371595817257338 0.084807925678239082 0.069372500175050325 0.097235279115378256 -0.026687032497795495 -0.015527146126933825 0.11881974881600084 0.056130331392663636 -0.019831449111814278 0.10121144236079667 0.10736124315204693 0.09691746228924103 0.049479494019542242 0.095152860310338816 0.11231666980948048 0.098359800868370817 0.10431475088750877 0.082928116871972379 -0.022314959475568608 0.067085365249833537 0.09096389773384464 0.012210255751440094 0.015192734884556809 -0.032241188169915329 0.061424542526554229 -0.072660494591701402 -0.013922556305063817 -0.032168587130063118 0.020543701718365278 0.092933381404775556 0.012910587502062068
leaf_weight=5445.9124627113342 623.74071411788464 453.42342890799046 161.12120027840137 278.44851855933666 411.29724004864693 80.36449770629406 41.221351474523544 96.725305169820786 3714.5332926660776 275.7284708917141 82.174747556447983 76.082180455327034 60.871934190392494 46.073063880205154 82.046436324715614 93.815745174884796 83.715053126215935 612.04958645999432 170.4272627979517 904.87851603329182 69.65759702026844 20.890932738780975 59.770461395382881 2230.4855884313583 163.24279682338238 109.12324851751328 11.721922442317007 23.597480371594429 975.56964057683945 45.320037215948105 30.502115443348885 177.90393114089966 28363.682977437973 39.517642319202423 335.23569652438164 15.39095291495323 66.053882300853729 27.740402191877365 31.34761480987072 29.062202960252762 14.990347847342489 19.148720026016235 50.420233935117722 188.14822489023209 21.077745079994202 41.42077699303627 18.339280188083649 558.89371362328529 60.561492308974266 97.130030602216721 46.070026859641075 15.944642350077627 402.19796666502953 38.567754074931145 22.134593278169632 447.09648315608501 27.296608850359917 48.658540531992912 89.407172933220863 13.152958333492277 13.005220636725424 112.12222860753536 97.223633036017418 14.679034709930418 44.772549092769623 135.16061328351498 181.25278320908546 70.301884606480598 41.73668971657753 78.806348770856857 12.867048397660254 20.302505135536194 34.246754422783852 110.75023449957371 78.187744483351707 21.316975593566895 55852.429618373513 19.856653645634651 89.85477340221405 58.373469710350037 75.427259773015976 11.179742902517317 99.741989806294441 16.119062066078186 29.995275393128395 14.407564446330069 48.971452221274376 83.501285120844841 30.214250832796097 81.747670769691467 18.222856029868126 74.498976305127144 14.829817771911619 50.647741392254829 31.294635757803917 177.21815975010395 38.560208648443222 131.71031554043293 18.257530450820923 15.879148334264753 16.922336533665657 25.201191484928131 51.898613199591637 84.946224927902222 508.86680565774441 53.903035044670105 28.612197414040565 18.694165095686913 214.39109615981579 1070.5102742016315 942.5999139547348 49.957844287157059 247.7750593572855 59.489671438932419 58.302250906825066 17.850245609879494 79.376475483179092 26.329538404941559 141.07994672656059 13.043982073664665 12.832583159208298 46.622527882456779 45.307151645421982 38.533185333013535 104.58679096400738 46.320353925228119
leaf_count=26568 2554 1878 673 1288 1939 370 180 436 15189 1270 357 333 269 204 349 399 374 2952 727 4339 303 88 254 10830 733 481 52 103 4010 190 138 754 115797 172 1380 64 286 127 146 123 69 80 236 776 97 176 79 2298 261 415 192 66 1905 172 97 2124 120 201 375 57 59 490 409 63 202 553 755 293 194 381 59 85 157 475 354 97 272981 91 436 275 357 50 453 67 134 61 213 367 130 381 77 318 72 239 146 735 162 560 76 70 74 105 223 392 2109 222 121 83 897 4381 3886 208 1039 271 244 75 356 115 658 58 60 213 214 179 435 210
internal_value=-0.000265768 0.105504 -0.0654796 0.053673 -0.0145981 0.111883 -0.067994 0.0795206 0.112312 0.0232922 -0.0193619 -0.0406876 0.00745338 0.0969644 0.0743461 0.0474614 -0.0682589 -0.0561786 0.0317173 -0.0462042 0.094338 -0.0364112 0.0267711 -0.0595379 -0.00739847 -0.0280476 -0.0689823 0.00948293 0.103207 0.0648614 -0.0424829 0.0810718 0.11463 0.10911 0.0892085 -0.0212897 0.00452547 -0.0355766 -0.0469592 0.000917644 0.00865533 0.0515127 -0.0399594 0.0701094 0.0338729 0.0610194 -0.0514236 0.0919615 0.0725619 0.0901062 0.0415211 0.0186976 -0.0464099 -0.00452143 0.0165398 -0.0494601 0.0868789 0.0723372 0.0613048 -0.0141297 -0.0240879 0.0141519 0.0641084 0.0322197 0.0222059 0.0885016 0.0784547 0.0661729 -0.00504904 -0.0527196 0.0354986 0.0304192 -0.0611897 0.0505087 -0.0225325 0.0425821 -0.069047 -0.0655477 -0.0664247 -0.0421966 -0.013925 -0.04527 -0.0351365 0.0399075 -0.00274233 0.00196198 0.00114113 -0.0184213 -0.0019855 -0.0404108 0.0519394 0.0629866 -0.00954431 -0.0314877 -0.0667555 0.0840156 0.0616247 0.054774 0.0410216 0.0222746 0.0428354 0.0800391 0.0325784 -0.0181143 0.108518 0.0788765 0.072912 0.00356139 0.0870422 0.107059 0.104125 0.0756483 0.072284 -0.00519267 0.0453915 0.0442021 -0.00435363 -0.0138159 -0.0469179 -0.0428309 -0.00507027 -0.00075987 -0.0233051 -0.00794191 0.0827055 0.0357779
internal_weight=110995 42333.8 68661 4638.91 3233.2 37694.9 65427.8 3426.31 37596.2 1318.42 1212.6 1914.78 1055.51 4934.76 1067.45 1083.04 65304.7 3689.63 774.832 1806.68 2343.27 947.316 288.439 3559.6 838.563 816.904 61615 440.547 3867.31 216.942 877.504 1210.67 32661.4 4297.74 583.204 547.254 203.468 707.781 1297.82 378.389 63.8085 108.098 643.972 247.968 48.8181 334.285 98.7038 779.006 123.1 878.633 265.28 291.31 806.265 349.327 138.886 1224.73 262.917 220.112 171.454 137.414 531.863 275.365 368.748 219.21 175.919 841.919 425.21 243.957 73.0843 91.8116 88.9492 59.8201 989.773 171.622 124.261 62.5383 61556.7 5704.25 5608.97 163.058 95.2839 563.557 404.067 69.8115 80.4155 71.2392 93.744 210.441 113.716 612.684 173.655 101.796 73.2033 84.8945 2261.78 706.758 62.1577 271.524 139.814 53.6924 37.8133 84.9717 121.556 440.051 1132.61 529.54 43.2912 116.752 308.207 2988.68 1918.17 475.637 425.679 98.0574 155.432 188.278 164.323 56.8317 552.377 304.325 25.8766 58.3445 165.588 83.8403 146.008 130.035
internal_count=508380 174193 334187 19923 14854 154270 319333 14398 153821 5856 5525 8998 4745 20422 4483 4653 318795 17750 3357 8526 9745 4377 1260 17166 3811 3791 301045 1944 15939 934 4078 5082 133399 17602 2413 2522 901 3310 6190 1679 293 472 3017 1033 224 1413 449 3223 538 3662 1148 1289 3764 1556 623 5850 1111 925 724 615 2458 1223 1571 956 772 3511 1784 1029 340 440 392 257 4735 744 558 277 300780 27799 27351 783 448 2647 1859 299 370 314 415 933 497 2898 736 438 347 396 10976 2958 265 1162 602 232 162 359 526 2018 4663 2223 184 526 1296 12277 7896 2001 1793 443 659 802 748 253 2597 1406 118 265 774 393 611 584
is_linear=0
shrinkage=0.05


Tree=4
num_leaves=127
num_cat=0
split_feature=5 5 5 7 7 15 3 14 7 7 5 7 3 3 5 7 3 3 1 3 7 7 7 2 1 5 1 2 7 1 9 2 2 5 7 3 7 1 5 9 2 2 11 12 3 1 7 11 3 2 9 1 7 7 6 1 7 7 10 2 7 5 1 6 7 5 3 3 5 1 5 5 7 3 5 1 3 7 5 2 2 10 5 5 3 5 6 10 7 3 7 5 10 9 5 2 2 2 1 12 1 7 1 3 6 7 2 7 1 6 5 7 7 2 7 7 14 2 7 5 10 2 7 12 3 1
split_gain=277398 5064.04 3493.07 3025.67 1238.32 1002.15 936.458 667.567 596.281 529.756 413.111 406.012 386.327 322.124 277.21 465.382 269.657 240.269 198.37 157.124 153.079 152.931 135.295 129.554 121.473 111.169 91.1114 78.229 78.0897 74.2642 73.1066 71.2609 64.2944 63.4731 64.5832 59.894 58.4074 56.9151 55.086 52.3347 51.9865 50.8846 50.5953 54.2906 50.4903 49.159 48.8257 48.4398 45.069 42.0953 38.5215 36.972 36.7869 33.6063 35.2596 32.7608 32.7496 31.3729 29.6882 30.6324 29.2857 29.2633 28.9086 30.3088 28.697 111.67 28.5129 28.2529 27.2689 27.2455 26.5629 26.3414 25.4588 25.1116 25.0865 24.8916 24.2851 24.1153 23.9588 23.3943 28.8833 22.9387 21.9741 21.4809 21.2786 20.3265 20.2382 19.2036 18.5976 18.4164 18.2821 18.246 24.792 18.2394 17.7756 17.5182 16.8533 16.2179 17.921 15.2141 57.1844 30.2477 15.7383 15.0216 14.8087 88.6328 14.754 14.731 15.8929 20.9922 14.0142 15.4932 13.7449 13.7233 13.7219 13.6496 13.5673 13.5129 47.151 31.0487 13.3739 13.2798 13.0748 14.6002 13.0132 12.998
threshold=0.17017260938882831 0.25781799852848059 0.10100780054926874 18.500000000000004 15.500000000000002 1.0000000180025095e-35 0.70833334326744091 1.0000000180025095e-35 12.500000000000002 8.5000000000000018 0.31521129608154302 18.500000000000004 0.30952382087707525 0.46428571641445165 0.046778045594692237 7.5000000000000009 0.30952382087707525 0.46428571641445165 0.46428571641445165 0.30952382087707525 19.500000000000004 15.500000000000002 9.5000000000000018 0.46428571641445165 0.58571431040763866 0.14051175862550738 0.46428571641445165 0.22500000149011615 25.500000000000004 0.64583334326744091 1.0000000180025095e-35 0.46428571641445165 0.63333335518836986 0.37546242773532873 18.500000000000004 0.91666665673255932 21.500000000000004 0.64583334326744091 0.06974606961011888 1.0000000180025095e-35 0.30952382087707525 0.30952382087707525 1.0000000180025095e-35 1.0000000180025095e-35 0.30952382087707525 0.30952382087707525 12.500000000000002 1.0000000180025095e-35 0.30952382087707525 0.22500000149011615 1.0000000180025095e-35 0.64583334326744091 21.500000000000004 6.5000000000000009 1.5000000000000002 0.86607143282890331 6.5000000000000009 23.500000000000004 1.0000000180025095e-35 0.46428571641445165 14.500000000000002 0.2049907669425011 0.46428571641445165 1.5000000000000002 6.5000000000000009 0.026075057685375217 0.46428571641445165 0.46428571641445165 0.21149917691946032 0.73214286565780651 0.12601026892662051 0.28842610120773321 4.5000000000000009 0.70833334326744091 0.19801334291696551 0.30952382087707525 0.61250001192092907 25.500000000000004 0.22892250120639804 0.63333335518836986 0.22500000149011615 1.0000000180025095e-35 0.13340276479721072 0.14051175862550738 0.30952382087707525 0.38590529561042791 2.5000000000000004 1.0000000180025095e-35 6.5000000000000009 0.46428571641445165 21.500000000000004 0.14773248881101611 1.0000000180025095e-35 1.0000000180025095e-35 0.2049907669425011 0.30952382087707525 0.63333335518836986 0.30952382087707525 0.64583334326744091 1.0000000180025095e-35 0.30952382087707525 13.500000000000002 0.46428571641445165 0.22500000149011615 1.5000000000000002 9.5000000000000018 0.63333335518836986 14.500000000000002 0.30952382087707525 2.5000000000000004 0.2049907669425011 16.500000000000004 11.500000000000002 0.30952382087707525 6.5000000000000009 22.500000000000004 1.0000000180025095e-35 0.46428571641445165 12.500000000000002 0.019678764045238498 1.0000000180025095e-35 0.30952382087707525 23.500000000000004 1.0000000180025095e-35 0.46428571641445165 0.46428571641445165
decision_type=2 2 2 2 2 2 2 2 2 2 2 2 2 2 2 2 2 2 2 2 2 2 2 2 2 2 2 2 2 2 2 2 2 2 2 2 2 2 2 2 2 2 2 2 2 2 2 2 2 2 2 2 2 2 2 2 2 2 2 2 2 2 2 2 2 2 2 2 2 2 2 2 2 2 2 2 2 2 2 2 2 2 2 2 2 2 2 2 2 2 2 2 2 2 2 2 2 2 2 2 2 2 2 2 2 2 2 2 2 2 2 2 2 2 2 2 2 2 2 2 2 2 2 2 2 2
left_child=2 3 6 8 9 7 14 10 22 56 11 27 24 25 55 88 18 20 30 28 26 38 114 68 36 39 48 107 47 44 32 74 42 34 97 70 41 52 67 58 -26 45 43 60 46 -5 104 69 91 -30 62 -7 113 54 -8 64 -4 73 59 99 -10 -54 63 -27 65 -1 -23 -17 -20 79 -15 106 -67 121 -24 -60 81 95 -62 80 -13 94 -58 -50 -22 -9 -45 -42 -16 120 -86 -6 -93 116 -33 -36 -43 -12 -99 101 -101 -11 -103 -49 105 -29 -48 -3 109 -109 111 -18 125 -14 -2 -63 122 124 -119 -120 -40 -19 123 -38 -66 -72
right_child=1 5 4 12 17 51 53 85 16 13 33 19 37 35 15 21 110 57 23 -21 84 66 31 -25 40 50 -28 29 49 -31 -32 76 -34 -35 77 -37 93 -39 89 -41 87 96 -44 86 -46 -47 71 103 83 -51 -52 -53 61 -55 -56 -57 82 -59 75 -61 78 115 -64 -65 117 72 -68 -69 -70 -71 112 -73 -74 -75 -76 -77 -78 -79 -80 -81 -82 -83 -84 -85 90 -87 -88 -89 -90 -91 -92 92 -94 -95 -96 -97 -98 98 -100 100 -102 102 -104 -105 -106 -107 -108 108 -110 -111 -112 -113 -114 -115 -116 -117 -118 118 119 -121 -122 -123 -124 -125 -126 -127
leaf_value=-0.065139858073172338 0.10741573798615445 0.10658984188630494 0.10010030440428189 -0.029139633509542059 -0.04665858813396629 -0.060490686243634365 0.069700241044932776 -0.064124178428635784 0.012074821756618738 0.0026274108916109085 0.10806750474084117 0.072208903603929772 0.072217093766422991 0.020638285339971307 0.04930421958475803 -0.057419780715546966 0.081558908574766248 0.012970341086612531 0.059323772994005514 0.086838836628759908 -0.06250964847286998 -0.065540115026687037 0.070997196843138682 0.025520703898898052 0.084723555461534039 0.050954544217804702 0.026264048341151799 0.097303749156517905 0.04895607782769662 0.10618264872911787 0.069930660485889348 0.041069522851315363 0.06528401011157027 0.10797342067573357 0.10205765131576124 0.11332426876770225 -0.041658689329247281 0.085577136122503575 -0.034265485509722859 0.065967377925463574 0.015479306250083849 -0.039287708987185477 0.053916695283172722 -0.0037731962701896085 0.098663353539816423 0.055009955151670301 0.044168860579693901 -0.014992397142257681 -0.020506469187514351 -0.028608581963204139 0.095646263713881505 0.032067695026247171 -0.026475754585964163 0.096242261985102467 -0.010987947744420653 0.021309613798818978 0.038809762617812785 -0.022808799798729816 0.01638404034546246 -0.031555437678321731 -0.030357388839008223 -0.0033646690966390998 0.029826813420541665 -0.0076872954112614817 -0.068113602793687111 0.040741074848052082 -0.02018315248431158 -0.0075977434200357481 0.094096972139720694 0.10474463675464968 0.073995902049871318 0.076168872446320451 -0.023463933775593086 0.11655200724379043 0.099448650331615263 -0.063771913112613862 0.11173272371033711 0.067603530172826359 0.0053297307552780671 0.088635227055115062 0.028596935386729395 0.089360504460135506 0.084563970514003314 0.037586865706851109 -0.0047031086182670661 0.0022705534526716266 0.075253043673637138 -0.062018553468081897 0.011237962621893936 -0.0076294310591415023 -0.05505569367401613 -0.031689854574098272 0.040427026887702056 0.011347542826356126 0.063446575363330357 0.086192085451037653 0.018978524358791465 0.098220739248057978 0.10654415310252799 0.090212714595718835 -0.029836756055933 -0.044696413743833215 0.0084796493061566249 0.050349732366501455 0.091466519988330719 -0.008952955827445026 0.082741049432712363 0.036180194010507864 0.098857360005611683 0.11252003980394926 0.089282648611874252 0.043839396997437677 0.076911161903462685 0.031772674684245987 0.095933445993410749 0.047033446026023613 -0.069290884280214474 -0.068004592857377769 -0.06968110461217103 0.024838595423519946 -0.053453882910907663 0.063389094808104063 -0.054940036462154077 0.013311668960513343 -0.060683694621232631 0.023715666785175539
leaf_weight=5443.1090215593576 587.20229803025723 1341.9590139687061 162.47493407130241 34.633255168795586 308.89785674214363 92.646119102835655 43.191489398479462 54.572469457983971 86.814747035503387 152.4670567959547 1801.4436885714531 54.240719616413116 31.075757905840874 56.976534575223923 89.86917869746685 591.70474328100681 78.696878850460052 23.906935855746269 89.515599474310875 200.09957528114319 791.9644655585289 2349.6676934808493 106.8653815984726 183.65336535871029 25.441273719072342 25.558652102947235 70.833645939826965 76.286997139453888 23.658404007554054 454.56880947947502 47.343229174613953 133.35336780548096 39.891526132822037 29360.31401912868 291.48950996994972 45.052881360054016 107.1899432092905 43.595335111021996 598.26959879696369 17.750889375805855 27.020568504929543 213.35733425617218 37.885655596852303 11.826271355152128 341.25124964118004 34.789400354027748 167.49968187510967 38.324649602174759 36.777024537324905 67.114409700036049 14.959514081478117 12.211010724306105 48.407018914818764 62.165354058146477 19.721442952752113 10.354286357760428 46.873545989394188 15.507025226950644 11.510748967528341 203.2282806634903 191.0723697245121 22.555127680301666 151.82568073272705 159.77896194159985 53410.686133056879 19.483394861221313 35.167872697114944 29.892586424946785 152.30380538105965 24.039065435528755 20.967090740799904 184.85118500888348 74.392979919910431 13.676172897219656 281.72877964377403 61.07978843152523 24.131442010402679 111.47349444031715 62.386558338999748 31.095152914524078 126.51451954245567 59.020780831575394 59.617776766419411 28.048510178923607 30.36164216697216 14.614632144570349 25.723094671964645 11.351900577545164 49.903042733669281 56.992635920643806 44.373194858431816 117.70693865418434 13.259804010391234 11.107283502817152 265.32411277294159 431.61593244969845 13.177072197198866 1460.9361924380064 1160.3181491047144 17.543978855013847 22.825720712542534 70.526899933815002 17.334429547190666 11.415608480572699 363.92768037319183 26.423131868243217 29.098137602210045 24.939142063260078 184.85710699856281 14.094710528850554 249.731080904603 41.62229023873806 68.165319174528122 64.521851167082787 467.22397015988827 33.225397914648056 107.04102419316769 137.90614904463291 12.904624938964842 26.592558518052101 107.05630399286747 28.785406619310379 300.61135219037533 13.613441094756125 595.90468859672546 33.215827226638794
leaf_count=27326 2371 5420 666 159 1482 434 185 255 378 696 7265 225 131 249 394 2926 328 103 374 823 3898 11730 444 779 105 109 310 309 101 1838 196 565 168 118323 1182 184 497 179 2861 73 117 1001 165 53 1389 151 706 167 173 299 61 53 219 261 90 47 203 71 52 946 865 98 662 727 269140 88 164 139 623 98 89 757 356 57 1148 303 98 456 275 128 548 243 248 124 139 65 110 51 225 263 214 555 62 51 1099 1758 57 5914 4678 79 105 335 78 49 1485 107 119 103 750 58 1026 175 288 277 1906 143 533 691 64 124 522 124 1443 62 3000 140
internal_value=-0.000242018 0.0988759 -0.0640494 0.047838 -0.0107998 0.104652 -0.0665078 0.105073 0.072621 0.0227997 0.105352 0.0896719 -0.0220689 0.00803385 -0.0667764 -0.053876 0.0464375 -0.0420986 0.0320522 0.0510379 -0.0468288 -0.0571986 0.0902839 0.0571804 -0.0371927 -0.00498523 -0.0268387 0.096611 0.0320058 0.0889927 0.0107947 0.0756939 0.00464966 0.107067 0.102008 0.0617859 -0.0422711 0.0338162 -0.0439767 -0.0185482 0.0292994 -0.0244214 -0.00116883 -0.00669246 0.0824227 0.0130298 0.0758878 0.0448443 -0.0342918 -0.00839266 0.0171342 -0.0497119 0.0225214 0.0701696 0.0444068 -0.0676206 0.0859753 0.0412217 -0.0212439 -0.0167712 -0.0129886 0.00196955 0.0136508 0.000399603 -0.067636 -0.0642073 -0.0648713 -0.0550238 0.0812248 0.0542995 0.0488376 0.0626186 -0.0101386 0.0561825 0.0916244 -0.0510615 0.062846 0.0892505 -0.0215733 0.0485754 0.0416839 0.0602685 0.0644247 0.00462917 -0.060103 -0.0500994 0.0503635 -0.00744724 0.0357134 -0.0349688 -0.0345995 -0.0400278 -0.0243883 -0.0520619 0.0559617 0.0925876 -0.0358985 0.104415 0.101905 -0.00606727 0.0223347 -0.0108382 -0.0342051 3.9096e-06 0.0867346 0.0699682 0.0498779 0.104609 0.0927359 0.0637457 0.0825287 0.0685105 0.0619697 0.0449199 0.102328 0.0266547 -0.0533947 -0.0679864 -0.0542095 -0.00604313 -0.037178 0.0405137 -0.049357 -0.035464 -0.0680316 0.0431725
internal_weight=109653 42943.9 66708.8 4366.03 2943.83 38577.9 63764.9 38473 3223.32 1419.73 38403.8 3786.26 1142.71 1150.77 63639.9 3908.52 1298.47 1524.1 928.416 576.502 1442.22 3768.75 1924.85 425.473 899.334 926.391 575.524 3209.76 376.403 1643.91 502.943 870.424 455.6 34617.6 5257.28 224.378 835.52 243.38 1383.92 574.268 63.8137 295.957 415.709 377.823 1189.34 69.4227 848.087 285.63 504.69 90.7728 352.123 104.857 199.785 125.078 62.9129 59731.3 268.966 81.8755 556.517 483.926 340.274 104.188 337.163 185.338 59721 5536.99 2384.84 621.597 241.819 235.889 179.325 381.449 93.8764 66.3685 388.594 72.5905 481.83 834.579 253.459 211.85 180.755 457.698 106.491 64.8255 866.699 69.1871 37.5494 38.3725 139.772 762.319 74.7348 439.865 130.967 539.563 398.677 723.105 226.534 4422.7 2621.25 280.698 40.3697 240.328 87.8613 49.7403 466.638 102.71 196.598 1565.85 223.891 39.0339 370.05 120.319 122.348 95.5976 1054.43 55.7805 528.456 54184 177.403 39.4972 705.326 52.6923 421.415 120.803 54006.6 54.1829
internal_count=508726 174525 334201 18663 13605 155862 320596 155375 13389 6293 155055 15479 5274 5176 320060 19224 5515 7312 3986 2438 6957 18605 7874 1776 4227 4226 2706 13041 1615 6710 2210 3597 2014 139576 21253 950 3954 1047 6711 2667 273 1368 1846 1681 4872 310 3483 1215 2396 400 1559 487 868 536 275 300836 1117 355 2594 2239 1518 460 1498 836 300789 27770 11894 3065 997 999 766 1582 444 284 1592 355 2005 3396 1140 901 773 1907 451 297 4251 320 163 168 619 3646 353 2099 617 2586 1664 2940 1058 17857 10592 1293 184 1109 413 216 1901 416 825 6331 911 161 1529 503 517 408 4277 241 2535 273019 879 188 3383 227 2002 559 272140 229
is_linear=0
shrinkage=0.05


Tree=5
num_leaves=127
num_cat=0
split_feature=5 5 5 7 7 3 14 4 7 7 3 3 3 5 7 3 5 7 8 3 1 7 5 4 7 4 7 2 7 4 5 8 2 3 7 8 7 2 6 1 2 6 1 3 2 3 1 1 5 9 2 1 7 9 7 3 3 7 5 8 3 1 9 8 9 3 5 2 4 12 8 4 5 7 12 5 3 8 3 7 5 8 7 7 7 13 7 6 2 7 5 7 7 4 3 5 5 5 4 3 12 8 1 5 11 7 7 5 7 5 2 5 5 2 7 8 3 5 14 5 7 3 5 7 6 2
split_gain=252596 4487.01 3352.83 2682.9 1132.03 831.758 716.799 572.415 498.824 494.898 365.287 357.431 269.13 239.769 364.408 237.472 213.446 434.923 147.278 144.259 137.895 122.592 117.008 116.011 106.978 81.3247 77.3356 71.8857 67.371 65.3977 100.627 64.845 64.5845 76.0886 61.1784 58.248 57.7793 56.8044 56.3788 55.9348 54.3555 54.1211 51.4468 51.364 50.3363 50.0133 58.7883 48.8315 46.9181 46.3658 44.5387 43.0303 40.049 38.1907 37.6298 36.6927 33.5031 35.9036 33.2657 32.8896 32.5655 32.3537 32.157 30.4819 30.3728 29.9987 29.8565 29.2634 29.1638 28.5225 27.1786 38.8374 26.8215 26.1955 26.1049 25.2161 24.8622 24.8533 24.6418 24.6 82.6514 31.2724 46.4532 29.9604 23.3335 23.2895 23.1989 23.1036 23.0512 21.603 21.4554 27.6773 21.3239 20.7692 20.3626 20.3436 20.3142 20.0423 20.0276 20.0241 19.4663 19.4194 19.3806 19.1549 18.8199 17.913 17.2778 18.137 17.1265 15.9527 15.6715 15.555 14.8459 14.5731 14.4546 14.4351 14.3887 14.2849 14.1527 13.6859 13.6239 13.5666 13.5527 13.3956 12.6263 12.4854
threshold=0.17017260938882831 0.25781799852848059 0.095805045217275633 18.500000000000004 15.500000000000002 0.70833334326744091 1.0000000180025095e-35 0.61250001192092907 12.500000000000002 8.5000000000000018 0.30952382087707525 0.46428571641445165 0.46428571641445165 0.33121013641357427 18.500000000000004 0.30952382087707525 0.040691845118999488 7.5000000000000009 11.500000000000002 0.30952382087707525 0.46428571641445165 15.500000000000002 0.13340276479721072 0.53571429848670971 9.5000000000000018 0.46428571641445165 19.500000000000004 0.13392857462167743 12.500000000000002 0.77500000596046459 0.33514879643917089 8.5000000000000018 0.30952382087707525 0.30952382087707525 20.500000000000004 7.5000000000000009 14.500000000000002 0.46428571641445165 2.5000000000000004 0.64583334326744091 0.46428571641445165 3.5000000000000004 0.30952382087707525 0.91666665673255932 0.30952382087707525 0.30952382087707525 0.46428571641445165 0.46428571641445165 0.06974606961011888 1.0000000180025095e-35 0.30952382087707525 0.46428571641445165 25.500000000000004 1.0000000180025095e-35 21.500000000000004 0.30952382087707525 0.53571429848670971 21.500000000000004 0.12601026892662051 11.500000000000002 0.46428571641445165 0.41428571939468389 1.0000000180025095e-35 11.500000000000002 1.0000000180025095e-35 0.70833334326744091 0.14051175862550738 0.46428571641445165 0.26785714924335485 1.0000000180025095e-35 9.5000000000000018 0.46428571641445165 0.42214937508106237 6.5000000000000009 1.0000000180025095e-35 0.19138375669717791 0.46428571641445165 13.500000000000002 0.30952382087707525 6.5000000000000009 0.026075057685375217 16.500000000000004 5.5000000000000009 4.5000000000000009 28.500000000000004 1.0000000180025095e-35 6.5000000000000009 1.5000000000000002 0.15476191043853763 23.500000000000004 0.48630169034004217 12.500000000000002 23.500000000000004 0.61250001192092907 0.46428571641445165 0.001759138598572463 0.2049907669425011 0.28842610120773321 0.61250001192092907 0.53571429848670971 1.0000000180025095e-35 12.500000000000002 0.30952382087707525 0.19801334291696551 1.0000000180025095e-35 6.5000000000000009 4.5000000000000009 0.081395104527473464 16.500000000000004 0.21149917691946032 0.63333335518836986 0.13340276479721072 0.21714902669191363 0.30952382087707525 13.500000000000002 9.5000000000000018 0.61250001192092907 0.44444647431373602 1.0000000180025095e-35 0.15549890697002414 17.500000000000004 0.30952382087707525 0.21149917691946032 5.5000000000000009 3.5000000000000004 0.22500000149011615
decision_type=2 2 2 2 2 2 2 2 2 2 2 2 2 2 2 2 2 2 2 2 2 2 2 2 2 2 2 2 2 2 2 2 2 2 2 2 2 2 2 2 2 2 2 2 2 2 2 2 2 2 2 2 2 2 2 2 2 2 2 2 2 2 2 2 2 2 2 2 2 2 2 2 2 2 2 2 2 2 2 2 2 2 2 2 2 2 2 2 2 2 2 2 2 2 2 2 2 2 2 2 2 2 2 2 2 2 2 2 2 2 2 2 2 2 2 2 2 2 2 2 2 2 2 2 2 2
left_child=2 3 5 8 9 16 7 13 24 73 23 22 20 14 28 18 25 106 36 31 26 48 49 27 105 79 55 42 -3 30 34 52 -30 35 120 -34 40 75 51 56 68 -22 -5 58 -36 46 -46 103 60 70 -25 122 -16 63 -44 64 57 -12 -13 -48 -19 62 90 119 -6 89 -57 -53 -10 84 71 74 -71 -4 114 -26 96 -52 -28 80 81 -1 -83 -82 -63 118 87 -7 -33 -14 91 -15 -90 -42 -23 -84 -39 -37 -8 -93 -40 -50 -58 -20 112 -2 -18 -108 -69 -49 116 115 -59 -27 -11 -75 -17 -32 -29 -24 -9 -86 -38 -85 -96 -122
right_child=1 6 4 10 12 86 98 29 15 11 39 43 65 61 19 110 17 21 47 -21 41 94 53 50 37 113 78 85 32 -31 117 88 33 -35 44 97 38 76 100 -41 93 -43 54 -45 45 -47 59 109 101 -51 77 67 -54 -55 -56 66 102 104 -60 -61 -62 69 -64 -65 -66 -67 -68 108 -70 72 -72 -73 -74 111 -76 -77 -78 -79 -80 -81 83 82 95 123 121 -87 -88 -89 92 -91 -92 99 -94 -95 124 -97 -98 -99 -100 -101 -102 -103 -104 -105 -106 -107 107 -109 -110 -111 -112 -113 -114 -115 -116 -117 -118 -119 -120 -121 125 -123 -124 -125 -126 -127
leaf_value=-0.064673095905562167 0.10080015133748632 0.090622242925875979 0.090219166342946605 -0.03865608749452748 -0.042596384578091853 0.0644988723532577 -0.065346124514877854 0.095809317211603517 0.015207419834196371 -0.0059852977172305758 0.03811697901213764 0.020400124257215792 0.041146713389811122 0.097597718620069357 0.0035448733658051002 0.076038389071400814 0.069115636041234718 -0.056410059309641991 0.0039823444919293389 0.073196461430074258 0.03010698444020218 -0.065125758038647605 -0.010829466993630809 0.065515249308103402 0.060375663268808492 -0.041899145374760957 -0.06192785585793753 -0.048932768034646648 0.089301054391226459 0.1022596749885758 0.095154308018984252 0.069620522207419641 0.022695646772094451 0.090360908097020798 0.089422863172166453 0.046215927079513386 -0.043674624392753485 0.036486803770270158 0.018003923841404534 0.086129789374163962 0.00715888864524232 -0.051284087926676658 0.053457411839962457 0.10619485795724132 0.062878295279041249 0.080491170130271017 -0.038380981944874382 0.05647357461306704 -0.040653909044786704 0.074010819708430833 -0.016484062963025282 0.054824806310799994 -0.050995592001481849 0.079508998281648854 -0.018150952389351549 -0.028062542412320486 0.016492093896780805 -0.0342151145273209 0.063185247730784433 0.053858161941591522 -0.0056798490644861333 0.097025296402816916 0.10143119654731024 0.027217895636391865 0.041321385138144991 0.099832005278892938 0.03792993629187294 -0.024426165686470894 0.075460928248207659 0.044359486929138596 -0.012607541336172283 -0.04897509466979498 0.097220057638316856 0.013161745937742372 0.045114963936956416 0.092017160935099207 0.079173763076492404 0.059450768706046722 -0.032082826120326667 -0.066808206478699408 0.040330195050469822 -0.066177842643692267 0.0019220531224961057 -0.011571085295744543 0.035525132796271348 0.001187407746143091 0.087269989048539012 -0.0024259906255135869 0.045951376467041512 -0.03379033259223399 0.099949347891709353 0.066350497677974421 -0.0044072630777362417 0.071157199256329767 0.0046471031819064609 -0.067928791718905632 0.061740979596451244 0.076509853838726702 -0.00065408872601038824 0.10159588391489541 0.058241706920317764 -0.019398842198357552 0.088832309614040261 0.048507136987859925 0.047788578989720581 0.087834421669367446 0.011754368421743537 0.059579810565037132 0.039296112971847756 0.086255752720833898 0.044066536237716697 0.076461770647702348 0.0090234788931911006 0.021719425756665151 -0.042048055419709691 0.06653506022007015 0.10053314367156906 0.10133869889898134 -0.068086273443014905 0.011896330923338368 0.098893419388512857 0.093908636586940403 -0.011209079675646105 -0.061414343521394056 -0.062771369860062501 0.07290785969609645
leaf_weight=5146.2563748955727 597.0298724770546 840.25011232495308 172.27143451571465 93.138574466109276 455.6312417536974 41.049153998494148 62.94312909245491 284.16044153273106 25.927436664700508 61.985836282372475 75.955578312277794 70.785867184400558 56.89516606926918 109.84516277909279 115.49127361178398 260.23147910833359 20.507496327161789 760.15341657400131 37.039194852113724 122.18207076191902 77.810953184962273 2429.3634816408157 163.13696697354317 27.275310635566711 78.864023938775063 12.890039160847662 826.31029415130615 453.7610821723938 287.49837677180767 28772.075298726559 1475.2511257231236 35.892188653349876 143.42684383690357 144.83202536404133 78.092611163854599 95.471241623163223 73.119527518749237 119.67322540283203 147.33422157168388 40.657996341586113 112.24795725941658 27.693984910845757 36.354702517390251 46.640558511018753 41.642913118004799 49.194424524903297 40.589596763253212 71.473655417561531 494.99187724292278 12.023189559578894 84.585520178079605 31.271166816353798 47.502490669488907 19.571511149406433 37.036090090870857 43.82797883450985 14.377303972840307 49.210298031568527 126.83337385952473 12.684328421950338 33.008441135287285 2210.7046356350183 202.69502091407776 137.78082293272018 11.043785020709036 18.768628880381584 28.145769268274307 37.256182476878166 89.084923818707466 52.348009988665581 243.26666462421417 192.59779568016529 44.309224531054497 26.502050131559372 16.54795441031456 312.34148524701595 125.27718408405781 12.348749279975889 75.479726999998093 51949.251006260514 20.220882803201675 86.973915174603462 55.740240946412086 35.560716181993484 24.635635301470757 20.53279022872448 61.111061438918114 18.802550718188286 43.773973390460014 11.573922395706175 101.40043178200722 423.11679737269878 40.442877054214478 14.29121223092079 17.051301047205929 12.821484535932539 237.97777633368969 127.52958704531193 14.771387726068495 44.540558487176895 37.761405020952225 137.2592376768589 26.005876570940018 69.444703042507172 13.077706292271612 481.00935079157352 115.50911179184914 23.930892780423164 14.706975772976874 121.22684507071972 30.160103186964989 58.74777190387249 33.275664135813713 29.841034725308418 50.361736044287682 24.268707573413849 77.900528445839882 2543.7851744890213 122.47820679843426 111.54623249173164 62.398672953248024 16.692026123404503 57.365154951810837 21.709430560469627 11.716883480548857 178.3388264477253
leaf_count=26649 2393 3385 698 442 2219 173 306 1144 110 288 323 309 243 441 505 1063 88 3870 167 501 340 12528 738 112 324 60 4192 2201 1160 115208 5918 148 600 585 315 399 336 505 647 165 488 133 156 188 173 199 173 296 2425 49 381 128 219 79 168 209 61 226 529 52 155 8867 814 600 49 78 123 160 364 223 1141 933 179 114 74 1261 509 52 363 270249 90 448 269 172 99 98 252 86 185 54 407 1713 180 58 81 66 976 521 64 179 158 654 107 296 57 1942 528 102 63 492 124 241 143 134 243 104 316 10188 628 498 251 67 252 105 56 724
internal_value=-0.000252232 0.0932347 -0.0628005 0.045378 -0.012638 -0.065383 0.0986493 0.098953 0.0684667 0.0181928 -0.0206435 0.00472903 -0.0416129 0.0836417 0.0702411 0.0445712 -0.065641 -0.0545378 0.0312319 0.0277887 -0.0464345 -0.0578657 -0.00841101 -0.0357414 0.0844752 -0.0664235 -0.0504759 -0.0430337 0.0807385 0.101361 0.0959363 0.00819154 0.0703414 0.0596798 0.0790857 0.047553 0.0177007 0.0714769 0.00601217 0.0324114 0.0369992 0.00874265 -0.0139866 0.0589988 0.0570949 0.0395766 0.018371 0.0601935 -0.0461998 -0.0231486 0.00907159 -0.011483 -0.0123503 0.0112642 0.0173208 -0.0354856 0.0221043 0.0124574 0.0478599 -0.0164192 -0.0542989 0.0921222 0.0839547 0.00802593 -0.0406105 0.0438305 -0.00225578 0.0166078 0.0618779 0.0951879 -0.025217 -0.0347583 0.0685916 0.0780641 -0.0135153 0.0856385 0.0600051 -0.0068105 -0.0594298 -0.0664749 -0.0632562 -0.0640055 -0.0419168 -0.0119915 0.0963294 -0.0511393 0.0656001 0.0434743 0.0360678 0.0284795 0.0787369 0.0750123 0.021768 0.0143868 -0.0646305 -0.0111405 0.0532907 0.0635404 -0.05305 0.0697073 0.0262128 -0.0360395 0.0630776 0.0330197 -0.00793721 0.095015 0.0262644 0.0199622 -0.00639104 0.0752094 0.0786012 0.0589443 -0.0167722 0.00252857 -0.0221511 0.0386745 0.0816816 0.0990686 -0.0530038 -0.00160074 0.088395 0.0591059 -0.0294018 -0.0304652 -0.0228115 0.0796433
internal_weight=107994 43290.6 64703.8 4400.09 3168.05 61535.7 38890.5 38812.8 3260.02 1534.87 1140.07 1253.08 1633.18 5274.58 2044.29 1307.84 61414.8 4043.49 939.551 405.285 1545.94 3883.54 1008.82 887.511 1952.17 57371.3 1440.44 763.301 1639.01 33538.2 4766.14 283.103 798.758 511.26 747.102 366.428 640.366 874.134 398.815 252.56 241.552 105.505 166.529 244.26 222.204 144.111 94.9168 299.184 1425.41 576.783 124.21 213.719 162.994 432.036 73.3908 538.649 211.902 171.519 197.619 53.2739 793.162 3230.29 881.598 412.464 466.675 87.2377 71.9737 83.2343 115.012 2348.69 564.76 321.493 96.6572 281.79 128.896 391.206 482.928 96.9343 901.79 57328.5 5379.28 5301.79 155.536 77.491 2252.03 596.772 120.963 59.8517 120.109 68.4691 678.903 577.503 84.2169 126.539 2458.13 68.5617 357.651 223.001 77.7145 467.657 185.096 632.251 40.3832 106.484 95.5637 1078.04 159.948 139.44 51.9632 192.701 368.292 109.519 82.486 42.7311 112.348 50.7708 338.132 4019.04 576.239 274.683 524.898 41.3277 130.485 57.2701 28.7682 240.737
internal_count=508909 174840 334069 18748 14829 319240 156092 155722 13428 6826 5320 5669 8003 21377 8388 5518 318729 20487 4015 1738 7628 19769 4643 4238 7910 298242 7155 3693 6650 134345 19137 1237 3265 2105 3031 1520 2764 3575 1744 1082 1020 473 766 1026 912 597 398 1251 7104 2728 545 939 724 1915 324 2600 917 749 838 225 4025 12989 3554 1836 2268 375 332 351 474 9435 2679 1538 402 1157 605 1585 1990 433 4555 298048 27799 27432 783 367 9033 2927 511 259 513 297 2740 2333 365 546 12665 335 1481 920 370 1892 805 3079 168 463 426 4335 718 630 223 788 1503 459 369 194 531 218 1379 16106 2829 1236 2119 166 588 277 137 975
is_linear=0
shrinkage=0.05


Tree=6
num_leaves=127
num_cat=0
split_feature=5 0 5 7 5 7 3 5 3 7 3 7 15 5 7 5 0 3 3 14 15 7 14 15 1 4 1 9 15 7 12 3 14 5 3 8 5 7 3 3 8 7 5 3 7 8 13 7 5 5 6 1 3 0 5 8 4 12 7 5 8 7 7 7 8 7 9 5 9 7 0 5 3 5 3 5 7 3 8 12 1 12 1 7 6 3 3 7 5 7 7 7 8 5 7 5 8 8 0 1 7 5 13 3 9 4 8 9 7 4 8 5 5 5 7 5 3 5 7 3 4 12 4 8 7 1
split_gain=231003 4547.14 2649.74 1988.38 1582.98 847.645 694.341 553.184 391.222 356.094 290.364 286.215 237.583 220.773 380.652 208.457 380.909 199.723 188.053 133.527 121.574 121.148 118.996 113.076 102.912 92.2688 85.8012 85.1828 84.8352 82.5669 74.5681 71.303 71.2031 63.757 63.3009 61.7346 61.5023 58.0132 54.3152 50.5294 48.7064 46.9701 45.6296 51.2417 45.1695 44.6027 41.531 40.8388 39.8863 39.6243 38.8848 35.7086 34.2943 31.1377 30.7635 30.1937 31.8208 31.3287 30.1543 102.177 33.5094 44.9154 29.7852 30.8598 29.1128 29.0721 28.0064 27.0757 26.9833 26.7043 25.7856 28.9457 25.4265 24.9751 24.4045 24.3199 24.0752 23.8686 23.6818 25.4215 23.6429 23.4307 24.4708 23.1411 33.5148 22.9115 22.1868 22.1597 19.5523 19.4678 19.3314 18.9929 18.4502 18.2006 25.6285 17.8835 17.7666 17.518 17.0283 16.494 16.2724 18.3935 15.8019 15.6313 15.4811 15.2486 15.1404 17.514 17.65 14.2591 14.0157 14.4374 13.9945 13.908 13.852 13.2892 13.2184 12.5069 12.4036 12.3482 18.4511 12.1085 11.9611 11.8412 11.7687 17.8425
threshold=0.16316841542720797 0.61250001192092907 0.095805045217275633 18.500000000000004 0.30213376879692083 15.500000000000002 0.70833334326744091 0.28842610120773321 0.30952382087707525 8.5000000000000018 0.46428571641445165 14.500000000000002 1.0000000180025095e-35 0.04363540560007096 7.5000000000000009 0.29329700767993933 0.77500000596046459 0.30952382087707525 0.30952382087707525 1.0000000180025095e-35 1.0000000180025095e-35 15.500000000000002 1.0000000180025095e-35 1.0000000180025095e-35 0.46428571641445165 0.46428571641445165 0.46428571641445165 1.0000000180025095e-35 1.0000000180025095e-35 17.500000000000004 1.0000000180025095e-35 0.46428571641445165 1.0000000180025095e-35 0.25224792957305914 0.61250001192092907 10.500000000000002 0.14051175862550738 21.500000000000004 0.30952382087707525 0.91666665673255932 11.500000000000002 11.500000000000002 0.39273789525032049 0.41428571939468389 19.500000000000004 12.500000000000002 1.0000000180025095e-35 24.500000000000004 0.06974606961011888 0.2049907669425011 3.5000000000000004 0.22500000149011615 0.61250001192092907 0.77500000596046459 0.37210106849670416 9.5000000000000018 0.46428571641445165 1.0000000180025095e-35 6.5000000000000009 0.026075057685375217 16.500000000000004 5.5000000000000009 21.500000000000004 22.500000000000004 11.500000000000002 18.500000000000004 1.0000000180025095e-35 0.14773248881101611 1.0000000180025095e-35 23.500000000000004 0.46428571641445165 0.13340276479721072 0.46428571641445165 0.21149917691946032 0.46428571641445165 0.38917404413223272 25.500000000000004 0.22500000149011615 7.5000000000000009 1.0000000180025095e-35 0.64583334326744091 1.0000000180025095e-35 0.30952382087707525 5.5000000000000009 1.5000000000000002 0.46428571641445165 0.46428571641445165 25.500000000000004 0.001759138598572463 14.500000000000002 6.5000000000000009 5.5000000000000009 16.500000000000004 0.19138375669717791 8.5000000000000018 0.19801334291696551 11.500000000000002 12.500000000000002 0.30952382087707525 0.30952382087707525 4.5000000000000009 0.081395104527473464 1.0000000180025095e-35 0.61250001192092907 1.0000000180025095e-35 0.61250001192092907 7.5000000000000009 1.0000000180025095e-35 11.500000000000002 0.46428571641445165 10.500000000000002 0.21714902669191363 0.11945400387048723 0.2350682616233826 20.500000000000004 0.24632639437913897 0.22500000149011615 0.22283392399549487 16.500000000000004 0.46428571641445165 0.46428571641445165 1.0000000180025095e-35 0.26785714924335485 7.5000000000000009 11.500000000000002 0.46428571641445165
decision_type=2 2 2 2 2 2 2 2 2 2 2 2 2 2 2 2 2 2 2 2 2 2 2 2 2 2 2 2 2 2 2 2 2 2 2 2 2 2 2 2 2 2 2 2 2 2 2 2 2 2 2 2 2 2 2 2 2 2 2 2 2 2 2 2 2 2 2 2 2 2 2 2 2 2 2 2 2 2 2 2 2 2 2 2 2 2 2 2 2 2 2 2 2 2 2 2 2 2 2 2 2 2 2 2 2 2 2 2 2 2 2 2 2 2 2 2 2 2 2 2 2 2 2 2 2 2
left_child=2 3 6 7 8 9 13 11 32 90 27 20 75 25 100 16 29 26 24 23 22 48 31 42 44 58 30 36 53 49 46 41 33 47 62 38 55 52 65 66 118 93 43 78 -7 68 73 77 72 -3 -26 -37 67 54 69 56 57 89 59 60 -1 -62 109 113 87 -31 70 -20 81 -17 -12 -72 -16 99 -19 86 -65 102 79 116 114 82 115 84 -8 -23 106 98 -63 -11 -4 -61 119 94 -2 -53 -38 -71 -35 -13 -15 -102 110 -33 -96 -57 107 108 -9 -10 -5 -112 -92 -64 -40 122 -6 -67 -28 -50 -121 -110 -43 -75 -98 -126
right_child=1 15 5 4 19 18 83 12 34 10 39 17 -14 14 21 28 -18 74 37 -21 -22 85 -24 -25 50 -27 40 -29 -30 35 -32 103 -34 64 -36 51 96 -39 80 -41 -42 45 -44 -45 -46 -47 -48 -49 92 -51 -52 95 -54 -55 -56 105 -58 -59 -60 91 61 88 63 76 -66 117 -68 -69 -70 97 71 -73 -74 123 -76 -77 -78 -79 -80 -81 -82 -83 -84 -85 -86 -87 -88 -89 -90 -91 112 -93 -94 -95 104 -97 124 -99 -100 -101 101 -103 -104 -105 -106 -107 -108 -109 121 -111 111 -113 -114 -115 -116 -117 -118 -119 -120 120 -122 -123 -124 -125 125 -127
leaf_value=-0.063293321524196297 0.084770255389949228 0.037249746448597597 0.080388038317335458 -0.040534227333318545 0.0089376937400037198 -0.040045340015699288 0.059256298355538972 0.082091402500281505 0.030782384608975439 -0.010310340635605207 0.086445812980840808 -0.034713583380551132 -0.065634077242118657 0.067393675496643213 -0.054414824350784541 0.087503128594386373 0.093056275115539003 0.046823502067343564 -0.0068000536703147624 -0.060029366155703749 -0.069358691916877435 -0.063491092868915286 -0.077551520127584428 -0.069057579173175107 0.02586454841936241 0.0041976678098672631 0.0093112807827474536 0.07109317267919707 0.0039138225736254986 0.043418424284640447 0.06150601324595948 0.077306797803346858 -0.067130463520548592 -0.051284706271361315 0.080100448422378775 0.0047274449881588125 -0.0021364183461596558 -0.03895491163473426 -0.00115689783765964 0.10215620777888733 0.067928226217090493 0.035285861892443253 0.086088098490280984 0.093852232937044797 -0.060562074467313209 0.072332610218741239 0.069223379292335102 -0.054955652108882105 -0.038181923558797459 0.081310751171613238 -0.048182002577325161 0.025191899543463094 0.067508975622491793 0.097165237659867287 0.094773478761838101 -0.012063617877672433 -0.043623022801669964 0.048449004264365714 -0.065667852412193459 0.0069068050483487081 -0.064360742217064587 0.0030581960725025014 -0.049921648068588197 0.046350926034384836 0.033696789554115834 -0.032014545801108192 0.10913488845503685 0.046190120086000236 0.081410604084488733 0.049896776518658731 0.0057775516433681128 0.050804280806587637 -0.0098014577478821793 -0.012106380277447218 0.083350085255754144 0.091448331153536705 -0.012364117191841568 0.019713030108990701 0.063960376113117542 0.084651499599788377 0.080617598438505106 0.089642946793428088 0.04471239969833516 0.075996659457196747 -0.0215216682951061 -0.019525215864984978 0.092623272318235833 -0.042749079430748613 -0.063154404964538113 -0.054005153196074435 0.024406638865742694 -0.04510016662408483 0.013249891946072484 0.072200306703093006 0.032483851678862995 0.074278490212858123 0.04959465239193054 0.096941651353688943 0.0051029822066143392 0.0013720643569878623 0.0098425004349640063 0.057361259932236043 0.011973511888279812 0.10027694206515239 0.09186145162290392 0.045527181598476282 0.083642911576222431 0.097695129848920315 0.059238692961343209 0.082245989216491067 -0.02914041152452997 0.017411115651747012 0.064375627898595619 0.01144288617290572 0.053855474876617827 0.042581087167530812 0.04561678382976421 0.0028002672423121317 0.045727492104482778 0.035961038910834346 -0.033011839586233181 0.093676626271784746 -0.002000273973347184 0.014341777218743211 -0.022460501608328621 0.035945321815530486
leaf_weight=4965.5815937817097 44.032473891973495 65.189369305968285 138.43146614730358 263.09828887879848 61.332532033324242 421.40741389989853 38.471677601337433 173.90257985889912 74.645948112010956 94.827159881591797 21.599049791693687 125.51268282532692 26.164054170250893 20.41535609960556 638.04200033843517 770.08595977723598 2197.4636065661907 70.348984375596046 97.401658803224564 19.928185477852821 17.222956299781799 2221.7955762445927 14.715399652719496 14.106614544987677 59.767388358712196 47.807897642254829 90.213060632348061 30.768531605601311 24.71186925470829 36.417015105485916 43.105031102895737 402.10562190413475 170.63902580738068 15.649915993213652 52.62367570400238 25.956477284431458 182.68491604924202 65.206791192293167 21.24662771821022 42.19318300485611 85.837268650531769 31.193247392773628 371.33284679055214 88.30150493979454 738.21718055009842 165.77966666221619 16.534206867218018 253.28491359949112 561.47227810323238 234.85861267149448 25.208069071173668 21.345507994294167 27.814890250563622 29068.573908403516 3222.6242979466915 273.46175660192966 215.55295775830746 17.934459075331688 50475.67782330513 62.079890727996826 83.473910361528397 56.203789785504341 30.444394871592522 42.04106268286705 36.239852428436279 36.418935924768448 14.025553449988363 32.03451344370842 40.781109228730202 83.231589987874031 72.880623340606689 69.951462358236313 33.619965419173241 81.666262924671173 130.66526611149311 1106.8904033601284 29.857957541942596 23.427933663129807 138.63878232240677 20.483213990926743 41.17315274477005 21.747946575284004 295.76487608253956 63.714809164404869 19.273861348628998 30.032567143440247 362.91253913938999 52.014328673481941 13.908717811107634 34.863764360547066 32.197684153914452 24.477137297391891 19.489782854914665 580.44409719109535 94.022399485111237 141.94847738742828 31.791468530893326 25.959705248475075 92.67077249288559 42.351252615451813 102.15308664739132 25.435028418898582 19.09980571269989 90.786216035485268 12.428393736481665 11.998076424002646 660.00613039731979 60.990228891372681 289.527832493186 16.420337781310081 67.32693737745285 22.130412638187408 68.478437647223473 13.253167822957037 24.798504382371902 43.790721103549004 40.972009867429733 88.444574102759361 31.564060345292091 14.30463223159313 30.098097532987595 27.992147669196129 69.278974339365959 87.838592559099197 22.696006581187248 30.85111528635025
leaf_count=26540 178 273 557 1272 253 2089 160 698 316 444 91 585 125 86 3331 3085 8798 289 450 98 76 11820 63 66 259 219 378 124 105 151 182 1620 899 73 215 109 820 317 87 169 349 132 1486 354 3857 678 72 1281 2789 948 124 91 116 116322 12895 1281 1056 79 271374 291 444 271 142 183 156 170 57 139 164 336 314 289 158 358 527 4429 130 112 563 83 166 91 1221 260 89 144 1453 246 74 172 138 121 93 2345 396 579 135 104 409 194 460 107 91 364 50 54 2647 244 1166 67 320 101 281 56 102 181 167 384 132 67 144 113 302 378 102 131
internal_value=-0.000261178 0.0880502 -0.0619423 0.0525332 0.0103057 -0.015053 -0.0642055 0.0682961 -0.0236749 0.0126714 0.00129157 0.0524115 0.0843059 -0.0644496 -0.0526171 0.0953914 0.0826195 0.0273908 -0.041646 0.0676771 0.0628879 -0.0558936 0.0640824 0.0711388 -0.0492143 -0.0652346 0.0130364 -0.0107389 0.0965208 0.0515346 -0.00058446 0.0651839 -0.0376702 -0.0317206 0.0311422 0.0376866 -0.0134857 0.000696633 0.0213005 0.0529483 0.0390826 0.0594232 0.0738816 0.060921 -0.0531063 0.0498431 -0.00814702 -0.0392833 -0.0437212 0.0717379 0.00389855 0.0592028 0.0171388 0.0965898 0.0925117 -0.0218109 -0.0313749 -0.013491 -0.0652942 -0.061671 -0.0625819 -0.03958 0.0186757 0.00182787 -0.00677656 0.00411024 0.0413138 0.00631463 0.0424244 0.084222 0.0355289 0.0278292 -0.0521817 -0.0119389 0.0705669 0.0857685 0.021968 -0.0292358 0.049798 0.0338073 0.0530879 0.0389814 0.0364775 0.0552196 0.0322949 -0.0629047 0.0817776 -0.0159246 -0.0100769 -0.0220565 0.0682639 -0.00780005 -0.0346342 0.068183 0.0526872 0.067862 0.00666205 0.0610815 -0.00304378 -0.0256094 0.0259473 0.0193155 -0.0323214 0.0815377 0.0394163 -0.00964304 0.0785311 0.0724238 0.0692874 0.0400619 -0.0347211 -0.0176243 0.051593 -0.0313102 0.0284711 0.0195945 0.0236273 -0.00735417 0.0187502 -0.0361746 -0.0107918 0.0622747 0.00957582 0.00159924 0.025497 0.0111899
internal_weight=106020 43598.5 62421.8 7468.08 2029.96 2874.25 59547.5 5438.12 1274.87 1407.19 1168.08 2729.73 2708.39 59426.1 3696.86 36130.4 2935.26 805.637 1467.06 755.096 1924.09 3548.85 1906.87 735.168 1244.6 55729.2 604.622 947.43 33195.2 737.797 397.008 1892.16 1015.58 844.943 259.287 437.749 916.662 222.458 248.499 220.65 207.614 1399.26 721.061 349.728 1159.62 668.337 353.903 648.368 1297.03 300.048 84.9755 189.25 157.251 33170.5 4101.9 648.638 363.178 147.625 55681.4 5205.73 5119.17 153.586 206.663 115.597 196.575 161.281 178.457 129.436 502.557 879.277 164.431 142.832 671.662 337.369 201.014 2682.22 71.899 395.083 261.427 122.788 87.2183 461.776 440.028 121.46 57.7455 2251.83 1575.33 160.335 70.1125 129.691 239.108 86.557 625.365 730.927 150.483 163.294 268.024 109.191 108.321 167.864 148.003 127.588 371.655 492.892 106.451 285.46 1212.42 552.413 491.423 91.0663 352.556 89.4574 100.676 43.6976 46.0451 144.263 102.305 124.864 121.777 605.875 44.4027 317.52 100.472 169.505 85.3386 53.5471
internal_count=508711 176024 332687 31319 9139 13645 319042 22180 6069 6294 5318 11305 10875 318533 19199 144705 11858 3444 7351 3070 7861 18546 7785 2972 6329 299334 2628 4398 132847 3060 1769 7722 4960 4061 1109 1839 4274 1022 1060 920 859 5738 2906 1420 5946 2769 1587 3177 6582 1221 383 779 705 132742 16420 3086 1751 695 299115 27741 27329 789 894 511 884 705 751 589 2091 3525 694 603 3489 1515 816 10750 313 1896 1066 503 355 1927 1836 509 249 11964 6321 728 345 616 976 412 3093 2969 624 670 1188 440 482 779 653 567 1784 1984 446 1335 4868 2221 1977 383 1693 421 419 198 189 615 420 554 510 3000 211 1279 434 736 368 233
is_linear=0
shrinkage=0.05


Tree=7
num_leaves=127
num_cat=0
split_feature=5 5 5 7 7 0 3 15 0 7 14 3 3 3 5 7 7 3 5 7 1 3 5 15 14 7 4 7 2 3 1 0 5 6 12 1 7 9 7 3 8 2 3 1 8 7 9 2 5 7 2 3 3 8 8 4 6 7 0 5 3 12 5 15 3 5 2 8 7 5 8 7 5 2 0 3 7 9 5 7 5 8 12 2 8 3 7 7 12 1 2 3 1 5 2 3 2 1 5 7 5 7 8 12 2 7 6 4 3 0 6 9 2 7 5 1 7 8 2 5 8 3 1 5 8 8
split_gain=212025 4152.38 2560.11 2159.74 881.02 796.497 685.673 561.693 490.525 437.571 420.473 321.233 316.089 208.466 198.235 250.765 181.778 141.561 140.475 300.565 110.497 97.449 92.7829 91.1913 89.2071 89.0968 84.7152 83.3086 76.5633 105.209 70.6464 63.9205 91.9216 60.7123 58.1514 55.6064 54.1967 47.6832 45.8549 45.7371 45.0248 44.7705 64.5319 43.5906 43.469 41.1154 39.5247 39.3546 38.9494 37.1271 37.1752 55.2512 35.1506 33.6045 33.3081 33.6834 33.2882 31.9897 31.2818 38.8577 28.4362 28.0892 36.8506 27.6496 27.5363 27.0792 25.726 25.3716 24.6659 66.1047 31.4842 55.5166 25.6618 24.397 24.0991 23.8859 23.79 23.3621 22.9883 22.6895 21.8293 21.781 21.5857 20.5795 20.2716 20.0799 21.3707 20.2844 19.4623 24.626 18.8394 18.8168 18.763 18.735 18.2827 18.2647 17.8927 23.2114 17.8266 17.8 19.809 17.7586 21.7777 17.557 17.3573 20.249 28.6286 17.1318 16.6961 16.3904 16.8743 16.3335 15.8438 15.5922 14.9066 14.7415 14.7099 16.9243 15.2284 14.2652 13.7026 13.6297 21.5477 13.5619 13.5103 13.508
